2237 100
。 0.090980686 -0.045052856 -0.114053436 -0.027973799 0.14321563 -0.083668865 -0.16183732 0.010669924 0.07871485 -0.041476127 -0.038005028 0.023337465 0.04370159 0.071214214 -0.19110334 0.20263815 -0.019047322 0.11752083 0.0419721 0.021135638 -0.037656132 0.11273782 -0.009913915 -0.007733059 0.12729374 0.13229635 0.18547462 0.044067074 0.048664197 -0.03024862 -0.08286241 0.051859483 -0.07360507 0.057307564 0.027091818 -0.078319676 -0.009994654 0.0053769993 -0.041939158 -0.07375568 -0.15630247 -0.05667607 0.04376273 -0.086701095 0.035714384 -0.022655258 0.1422287 -0.16608664 0.18794227 -0.0002800463 -0.025810335 -0.05331798 0.17489278 0.13400188 -0.17005226 0.02114153 0.08570575 0.12182556 0.0623671 0.026853353 0.08947533 -0.13845272 -0.21314476 0.09209213 0.16099319 -0.09309625 0.055949464 -0.09196898 -0.12874418 0.16116887 0.04973296 -0.13911013 -0.18461706 -0.059468225 0.056123726 -0.037003987 -0.18546209 0.050169397 -0.21306945 0.005206029 -0.09611055 0.034597795 0.032453347 -0.12060629 -0.0134061845 0.012748187 -0.08742823 -0.044319566 0.006381553 -0.015689436 -0.03725526 -0.07793098 -0.21745127 0.09318559 -0.0024760691 -0.14790754 0.056390397 -0.047780525 0.0492976 0.123925366
、 0.08139446 -0.053518005 -0.13031322 -0.024296911 0.13586424 -0.08566734 -0.16003153 0.0032659692 0.07366883 -0.03693953 -0.04228869 0.026053902 0.046447713 0.06830463 -0.20151322 0.189735 0.00243307 0.14207928 0.039536722 0.039440434 -0.04216174 0.123154856 -0.018458584 0.015800128 0.118218556 0.14080885 0.20641078 0.027147422 0.046116546 -0.022545492 -0.090454414 0.045230564 -0.0865655 0.059045553 0.04600837 -0.07916293 -0.01060008 0.014422559 -0.040220357 -0.10329275 -0.15190665 -0.02623847 0.016677702 -0.078842804 0.030967753 0.002743223 0.14679249 -0.19148941 0.18578891 -0.0015800647 -0.047361784 -0.04702688 0.19930509 0.15173137 -0.15401442 0.009989627 0.0903314 0.119009584 0.06784305 0.04246935 0.09583261 -0.13878293 -0.21897218 0.085707344 0.15328558 -0.076493174 0.06026824 -0.07920085 -0.118219726 0.12653324 0.042174917 -0.1395335 -0.18522279 -0.060205303 0.064905286 -0.030610597 -0.17688087 0.056815114 -0.19614086 0.008498345 -0.10652994 0.03832849 0.029921614 -0.08931873 -0.019802952 0.00081306265 -0.093382 -0.026124025 -0.0003174262 -0.009377843 -0.025859738 -0.07256094 -0.20251644 0.0981158 -0.006985602 -0.12580284 0.028773602 -0.054332465 0.058726653 0.14379607
， 0.090653926 -0.10564727 -0.06273771 0.0732599 0.2051676 -0.06801691 -0.058555577 0.017266512 0.055992667 -0.10712083 -0.14974985 -0.07885151 0.017158173 0.13152884 -0.2169645 0.18810013 0.09232645 0.16745025 -0.10516717 0.16707183 -0.05334965 0.15981226 0.029973932 0.04475296 0.1316408 0.13867709 0.28178903 0.09320442 -0.0484632 -0.03563565 -0.046671946 0.009703416 -0.03157437 0.024644347 0.07322039 -0.14523497 -0.09862002 -0.04113539 -0.04765417 0.0022967719 -0.13571897 0.060168758 0.15777531 -0.04559009 0.0855401 0.11058251 0.13473186 -0.10406498 0.19597684 0.052625474 -0.022636047 -0.02379359 0.17943549 0.21273626 -0.089218155 0.07223102 -0.011093511 0.08020231 0.01351794 0.019250466 0.10027811 -0.0957192 -0.1383679 0.124080345 0.037249602 -0.092881046 -0.03531237 -0.077716514 -0.11669813 0.053665154 0.024331085 -0.097927846 -0.14127852 -0.10069521 0.114519775 0.029189749 -0.15231244 0.12636302 -0.14294107 -0.05595142 0.033791747 -0.010765032 0.0036019355 -0.08110118 -0.061087843 0.038075656 -0.030177994 -0.020510985 -0.025737092 -0.10213606 -0.01853412 -0.09119187 0.03185377 0.0468666 -0.03000059 -0.042922337 -0.007250162 -0.057121407 0.04683779 0.10392177
： 0.077087924 -0.020467483 -0.12579098 -0.06978752 0.102813035 -0.077826746 -0.1758152 0.0074482914 0.08134684 0.00030647038 -0.004120635 0.07229778 0.057417993 0.035603307 -0.17074814 0.18776351 -0.043959334 0.10196971 0.07941647 -0.024911476 -0.021807939 0.07553516 -0.02891837 -0.013868022 0.09866653 0.12544577 0.15033996 0.01489117 0.07584684 -0.020101365 -0.09438946 0.06371308 -0.07484193 0.07990716 0.020029908 -0.059099425 0.02631895 0.03648958 -0.036142733 -0.10665553 -0.1414285 -0.07098488 -0.024642864 -0.081231296 0.017611781 -0.058139704 0.11196793 -0.18295927 0.160916 -0.019943811 -0.027910912 -0.06669205 0.17685011 0.09804791 -0.16652557 -0.0012895716 0.11907907 0.13258912 0.06345505 0.04459683 0.0912374 -0.14441195 -0.22126599 0.06941603 0.18398915 -0.08094631 0.093872815 -0.087372884 -0.10604242 0.158732 0.04883193 -0.13872421 -0.18236713 -0.043095395 0.04438607 -0.052416794 -0.15911546 0.030826246 -0.19318989 0.031629387 -0.14294627 0.048400316 0.04443224 -0.109875485 0.0064955303 0.004939229 -0.11324971 -0.04680292 0.016880708 0.03186512 -0.020166414 -0.061502572 -0.27522638 0.09942448 -0.006423171 -0.17456889 0.06865797 -0.029853405 0.050395917 0.12722538
（ 0.050605793 -0.04083432 -0.02409975 0.016719097 0.197247 -0.08308265 -0.20568101 0.020549212 0.06927775 -0.054387774 -0.017844329 -0.0064817616 0.023527382 0.10947915 -0.20062241 0.24955033 -0.051519535 0.05081726 0.10090494 0.026023237 -0.033822067 0.121405005 -0.0128645245 -0.036833037 0.19398981 0.08193489 0.169511 0.06564165 0.03270367 -0.06658294 -0.08578319 0.03238482 -0.101300314 0.03172075 -0.0052497927 -0.028876694 -0.013612378 -0.03219534 -0.052012563 -0.045980714 -0.16907264 -0.1127935 0.10559802 -0.09431125 0.04307721 -0.026509538 0.20343632 -0.113093525 0.14714867 -0.016743122 -0.06052124 -0.0495049 0.09242798 0.07557184 -0.21061677 0.04952688 0.044051982 0.12834664 0.015619852 0.037183084 0.041306153 -0.08534536 -0.17004676 0.06312112 0.12707974 -0.12415846 0.048520014 -0.055280592 -0.17812733 0.16463481 0.032612063 -0.11682928 -0.14644605 -0.026538884 0.004263435 -0.051127784 -0.21644652 -0.025183674 -0.23345084 -0.023766857 -0.07968581 0.018070402 0.03786774 -0.17814071 -0.022327475 -0.019838046 -0.030029137 -0.065963686 0.022829117 -0.038155887 -0.08417277 -0.10268654 -0.1724031 0.08831284 0.029386673 -0.117204964 0.07531247 -0.045526642 -0.010858808 0.08751327
） 0.047935158 -0.03351954 -0.035324316 0.016302722 0.18636654 -0.08663035 -0.21054038 0.025796635 0.06804905 -0.045134995 -0.0068236496 0.009268281 0.036810867 0.10407604 -0.1987257 0.24240102 -0.06029687 0.04423913 0.107635535 0.021774903 -0.035333503 0.11421103 -0.014758268 -0.03206402 0.1866905 0.08675118 0.16073656 0.055752512 0.03929115 -0.060025856 -0.09197488 0.035756998 -0.105351545 0.03681727 -0.0033840477 -0.020030126 -0.013205213 -0.026686916 -0.053881682 -0.05228743 -0.16584575 -0.11507959 0.09618336 -0.08763305 0.034991894 -0.033461817 0.19865845 -0.12209589 0.14700207 -0.01831829 -0.05976276 -0.0456553 0.09939323 0.06997369 -0.21070413 0.044713154 0.047702473 0.12738545 0.02322986 0.03882411 0.045177303 -0.0837926 -0.1816545 0.0617336 0.12642238 -0.11905357 0.061776575 -0.05468476 -0.17660794 0.16555275 0.02715061 -0.12388004 -0.14960897 -0.021431165 -0.004944748 -0.05701401 -0.2156329 -0.020316657 -0.2330621 -0.020686742 -0.08662562 0.02233534 0.035484746 -0.17331165 -0.028504394 -0.015129252 -0.04278108 -0.07132494 0.019255811 -0.027376028 -0.08707177 -0.09826553 -0.18829797 0.095739886 0.028978864 -0.1260628 0.066567935 -0.046619974 -0.00601923 0.09586488
培训 0.1292993 0.00093468267 -0.13802615 0.010544447 0.17200996 -0.09646741 -0.19288401 0.011442612 0.040140696 -0.0757459 -0.04427325 0.011853074 0.035586037 0.10001007 -0.12176401 0.17829187 -0.029802775 0.110597014 0.045068294 0.034838125 -0.029151062 0.14686151 -0.00512619 -0.02127188 0.12352628 0.12558606 0.17169252 0.053974073 0.030754222 -0.049920004 -0.053762976 0.06620874 -0.1417153 0.064385906 0.027504226 0.0122120185 -0.036941417 -0.011206205 -0.03537067 -0.03141972 -0.1423397 -0.099280566 0.048786167 -0.10367378 0.05743259 -0.019814985 0.15952848 -0.15896392 0.19781308 0.008599985 -0.041210536 -0.0018577569 0.11675384 0.09069846 -0.17694454 -0.038099103 0.06141312 0.062230773 0.035252735 0.008166351 0.10650899 -0.15024994 -0.24095313 0.079563715 0.16711423 -0.09428742 0.045698572 -0.078338794 -0.11977768 0.18799233 0.058426414 -0.12268468 -0.18798068 -0.03593056 0.06833203 -0.032743383 -0.16585897 0.06164809 -0.23302954 -0.0027520764 -0.09518329 0.031016577 0.015488211 -0.10292144 -0.014539399 0.04867396 -0.0746813 -0.041527383 -0.0077452026 -0.08232201 -0.089392886 -0.06362725 -0.20338696 0.08919195 0.003073784 -0.10823505 0.06395431 -0.056178402 0.0684178 0.11868688
会议 0.07725097 -0.034073632 -0.13137403 -0.054969855 0.10616583 -0.07659235 -0.17355487 0.0010527263 0.07983792 -0.007113748 -0.0062673744 0.06350178 0.048935927 0.036757454 -0.18747921 0.19621496 -0.036846552 0.109083906 0.07189986 -0.0034220684 -0.020052737 0.08823771 -0.03318804 -0.0007266659 0.101469 0.12997977 0.16578025 0.01173134 0.0752675 -0.012366833 -0.09659643 0.05392298 -0.07598896 0.06232026 0.027274748 -0.061141536 0.010242857 0.024979472 -0.037207253 -0.11058314 -0.13497528 -0.05754189 -0.024041846 -0.07747671 0.01890858 -0.04061595 0.1309907 -0.18959619 0.16592754 -0.014759291 -0.043393105 -0.053610813 0.18613362 0.10932333 -0.16795743 -0.0017280299 0.10622616 0.1399685 0.08047392 0.03338074 0.08230693 -0.13625427 -0.2199407 0.079318255 0.1778169 -0.07621576 0.082260594 -0.08831624 -0.11224957 0.14238618 0.047849987 -0.14281236 -0.1850515 -0.04868271 0.05279604 -0.050077792 -0.16357125 0.03445886 -0.19389217 0.030479817 -0.13326731 0.050664015 0.041413944 -0.10695534 0.014183139 -0.0029923331 -0.11103944 -0.034593083 0.009678697 0.032878682 -0.022343088 -0.06307867 -0.26612952 0.09569576 -0.0010864943 -0.16023466 0.05080431 -0.04197672 0.053634558 0.13293949
通知 0.12610464 0.0033948624 -0.17269216 -0.025269983 0.1275317 -0.08033518 -0.1803502 -0.0022384576 0.042554688 -0.04954106 -0.025174718 0.04804024 0.042648025 0.060539566 -0.121549696 0.16239515 -0.026359178 0.12681483 0.045413155 0.019951548 -0.013010034 0.12227889 -0.025640568 -0.004987382 0.09141098 0.14270544 0.16280064 0.013282404 0.059985686 -0.02575671 -0.07249284 0.071528226 -0.14010625 0.08062282 0.040911753 0.01225555 -0.019260036 0.015615042 -0.031055402 -0.07419573 -0.12306722 -0.07352628 -0.026732573 -0.09528743 0.041793313 -0.024173908 0.14122176 -0.19518249 0.19745886 3.540915e-05 -0.053148508 0.0009796656 0.1572688 0.10095083 -0.17294103 -0.054198965 0.09591322 0.07449734 0.06084201 0.023859175 0.11413126 -0.15601714 -0.25159135 0.07296133 0.19047841 -0.068267256 0.07049591 -0.08234223 -0.09435023 0.16420907 0.056865007 -0.1374916 -0.19611849 -0.043804467 0.07648112 -0.03769276 -0.1367685 0.07397958 -0.1999971 0.02717981 -0.12387499 0.045110047 0.02144517 -0.075715914 0.0010173616 0.042871963 -0.10808757 -0.029885946 -0.010213785 -0.035002608 -0.052391987 -0.043515265 -0.24699602 0.09045025 -0.011889218 -0.115821704 0.046204187 -0.057056457 0.08274329 0.13004483
- 0.07239501 -0.018239196 -0.09634654 -0.06509999 0.11744076 -0.08492536 -0.17165242 0.027645078 0.087539755 -0.00867483 -0.009933314 0.06348286 0.065718256 0.046314217 -0.17067222 0.19533135 -0.04977232 0.07894156 0.06945499 -0.031472594 -0.026503049 0.073885664 -0.0126046585 -0.029833805 0.11439287 0.122632906 0.14209133 0.034416974 0.06539988 -0.032891907 -0.08512791 0.06662489 -0.05667846 0.0869937 0.0034189841 -0.07621169 0.027835572 0.02828987 -0.046312332 -0.07591597 -0.15719396 -0.09098298 0.017292386 -0.08506906 0.024017904 -0.07270372 0.10180217 -0.15605883 0.16165322 -0.018860465 -0.00073231483 -0.080070294 0.15701866 0.0896882 -0.17178178 0.019045027 0.11486423 0.13092871 0.049158253 0.04214153 0.08632395 -0.1477272 -0.20685084 0.069327444 0.17132273 -0.107491 0.08565456 -0.09071608 -0.11436993 0.19022027 0.04672671 -0.1368686 -0.17496383 -0.043258797 0.03322293 -0.054425918 -0.18573941 0.025378408 -0.2090173 0.020315262 -0.12530032 0.0434296 0.04386205 -0.13399677 0.00035683785 0.02224425 -0.095520124 -0.06920191 0.01851687 0.015124696 -0.03409776 -0.066842265 -0.26591748 0.09887686 -0.00026069023 -0.19043031 0.0937925 -0.019890469 0.04109474 0.11648793
教育 0.10565759 -0.110625766 -0.035617854 0.11589188 0.23879771 -0.054164592 -0.04203669 0.025236446 0.046282474 -0.15432496 -0.15974435 -0.1424381 0.0010603801 0.15858734 -0.1697467 0.16270088 0.09168248 0.13208084 -0.113653384 0.16949752 -0.07158733 0.16997404 0.06883902 0.022126926 0.15850823 0.09675983 0.22855039 0.12101173 -0.08047084 -0.04449226 0.0016335964 -0.002715079 -0.022264525 -0.035383053 0.047446962 -0.13513651 -0.12734643 -0.08652691 -0.037408456 0.08163952 -0.1347434 0.026290871 0.24264799 -0.06482268 0.11193344 0.10828572 0.14652658 -0.020281725 0.17908728 0.083506696 -0.005737243 0.016100358 0.09986758 0.19983165 -0.074592814 0.06872378 -0.056443654 0.02749712 0.01824839 -0.03658707 0.056212865 -0.070857756 -0.09004936 0.11689945 0.0012899752 -0.095793396 -0.09085505 -0.048313376 -0.12285537 0.07403514 0.022701414 -0.05335615 -0.09117362 -0.08590699 0.081079036 0.027066587 -0.1467113 0.0948494 -0.15189596 -0.092949905 0.110603124 -0.019271478 -0.023911228 -0.088082306 -0.06206114 0.05514677 0.03532856 0.006279125 -0.034360398 -0.16195305 -0.06835382 -0.083762206 0.08997923 0.020192124 -0.0067102704 0.0098922085 -0.00010659328 -0.063151434 0.030731564 0.053307544
教师 0.115927055 -0.065164514 -0.019003088 0.13080415 0.25951433 -0.05944532 -0.09473885 0.023454713 0.03486558 -0.1738688 -0.13039136 -0.14763364 -0.019845203 0.17148624 -0.10986844 0.17928593 0.02687378 0.08058511 -0.046618827 0.12693568 -0.06650122 0.17835104 0.07166611 -0.020892829 0.18228988 0.055500463 0.16694836 0.13790601 -0.07870155 -0.07213686 0.021845631 0.0056677526 -0.055027694 -0.051761366 0.006891452 -0.056997873 -0.12144191 -0.10717803 -0.031657703 0.12567206 -0.14405978 -0.07433023 0.2802226 -0.09314075 0.117238455 0.048076566 0.18408045 0.02312142 0.15994042 0.0669231 -0.014394296 0.04439186 0.010128805 0.11812586 -0.12921284 0.048872706 -0.072091065 0.0020551363 0.013099824 -0.07284322 0.01886693 -0.064303376 -0.08909177 0.09575363 0.020621391 -0.10770234 -0.08499676 -0.046512235 -0.15210178 0.13986593 0.035362873 -0.033835776 -0.07982013 -0.046728674 0.031932972 0.0013154214 -0.15853961 0.047688935 -0.19819926 -0.10017136 0.113093175 -0.011262795 -0.02572146 -0.13259885 -0.050366443 0.051994376 0.058011424 -0.008243482 -0.020121116 -0.19264065 -0.13393374 -0.076558776 0.03908687 0.023270654 0.034548152 0.0073525836 0.04028719 -0.06849904 0.0067473277 0.022043725
“ 0.13446857 -0.09262556 -0.029353857 0.114775166 0.26198307 -0.066279456 -0.08455039 0.0068964367 0.05108481 -0.12999745 -0.15728757 -0.1126147 -0.017540466 0.16279027 -0.17484647 0.20420691 0.071246624 0.13734545 -0.09336359 0.16505155 -0.05177244 0.17512633 0.03215838 0.008302538 0.16487682 0.104167745 0.2508816 0.11473684 -0.054554157 -0.065046415 -0.034684066 0.023556111 -0.056712437 -0.01564188 0.0523571 -0.072412916 -0.10398475 -0.07228527 -0.01548373 0.052916773 -0.10186889 0.016640736 0.19955982 -0.05716178 0.11525304 0.11876863 0.16843288 -0.04340031 0.20222893 0.034701716 -0.031233346 -0.00047198517 0.11091357 0.1785601 -0.1227393 0.07319085 -0.043198485 0.05585799 -0.020212846 0.012275909 0.07694265 -0.071949586 -0.1258977 0.11971497 0.05763491 -0.10238597 -0.048315555 -0.06637731 -0.13474481 0.06434813 0.020634998 -0.07780984 -0.12134724 -0.103312746 0.08525273 0.037662685 -0.12739012 0.091664776 -0.14983743 -0.059953365 0.057654105 -0.021531044 -0.0022541794 -0.12483313 -0.060923044 0.04019453 0.005123315 -0.016957752 -0.012033057 -0.14964618 -0.06576531 -0.09697003 0.052378867 0.048190016 -0.032791432 -0.013472065 -0.006870815 -0.055878073 0.023543762 0.061454795
” 0.13573596 -0.08703971 -0.031264227 0.11591118 0.26772723 -0.07516294 -0.10145736 0.011396116 0.048259113 -0.12589698 -0.15064895 -0.10540878 -0.015177452 0.16599117 -0.17112139 0.20239799 0.061155703 0.1369114 -0.08593687 0.16255099 -0.05396509 0.18011265 0.026966058 0.0039798683 0.17035933 0.103013836 0.24340568 0.11236199 -0.051271703 -0.066798635 -0.0355833 0.025911972 -0.07396997 -0.009969279 0.04864901 -0.059021194 -0.09547775 -0.07351984 -0.012481116 0.045247447 -0.107189104 0.0054546287 0.19393988 -0.064206995 0.11041736 0.10787586 0.16946179 -0.052134827 0.20456815 0.032577466 -0.03332423 0.0035256993 0.1045443 0.1741077 -0.13054524 0.05998782 -0.03588938 0.05788693 -0.023673298 0.01435116 0.08237789 -0.07506493 -0.1367079 0.116845414 0.06337366 -0.104969956 -0.0399782 -0.06887505 -0.13469633 0.0761464 0.02517991 -0.08082638 -0.12960525 -0.09631773 0.07812264 0.03239414 -0.1357754 0.09008038 -0.16280884 -0.052993022 0.044227514 -0.01581658 0.00025107514 -0.1252025 -0.0603645 0.04125307 0.0035369177 -0.021616587 -0.0067681526 -0.15210636 -0.06731506 -0.09956935 0.031870987 0.05560127 -0.028087318 -0.013124826 0.0013307936 -0.058074664 0.02540488 0.06441266
中小学 0.12574308 -0.049491245 0.014709932 0.1536699 0.27987504 -0.069318876 -0.11429103 0.017573183 0.025659248 -0.16645476 -0.124427445 -0.14762428 -0.03426094 0.1820449 -0.09504212 0.1882312 0.019203862 0.05973487 -0.03581335 0.12031795 -0.05820881 0.17320415 0.053728104 -0.041829623 0.19336368 0.033509795 0.15462506 0.14192699 -0.08143393 -0.08701439 0.016857177 0.0076659955 -0.07954028 -0.052030906 0.00295341 -0.0070296577 -0.109089084 -0.10905013 -0.009118966 0.12574588 -0.11917283 -0.08044496 0.28737488 -0.08189073 0.12497737 0.06015449 0.18429455 0.03867652 0.157461 0.03780794 -0.02531198 0.03989976 -0.0207777 0.09334549 -0.14401437 0.058537032 -0.08389318 -5.4073582e-05 -0.042200483 -0.04704282 0.027663402 -0.038463958 -0.08733037 0.09054234 0.027057694 -0.11295845 -0.072489716 -0.037032466 -0.15700676 0.11882514 0.026888823 -0.02675656 -0.073776044 -0.04698473 0.027730724 0.0116402125 -0.13002194 0.033073984 -0.19138499 -0.09669367 0.09901663 -0.031249061 -0.015999427 -0.15035617 -0.06253576 0.04880506 0.06494154 -0.02322069 0.005966302 -0.2062703 -0.14122097 -0.09327892 0.055272892 0.03144798 0.030367097 0.014825628 0.034026984 -0.050408464 -0.008950302 0.009811312
将 0.14377654 0.0024526746 -0.18934049 -0.023339275 0.11863012 -0.08825029 -0.15169166 0.0011946277 0.03525131 -0.051480163 -0.033346213 0.053542506 0.038713947 0.05477383 -0.11408148 0.14131208 -0.010102807 0.13789643 0.004778677 0.0386973 -0.014888484 0.11538541 -0.015650995 0.014811382 0.073758446 0.15673958 0.18160123 0.0121009005 0.052258547 -0.011155434 -0.06887473 0.07686105 -0.13739175 0.08002541 0.04630481 0.0064508864 -0.021191014 0.023456063 -0.037536357 -0.070517935 -0.10233372 -0.051957034 -0.04702542 -0.08633735 0.045799732 -0.0112844305 0.11759609 -0.19764206 0.20853427 0.015397419 -0.048395265 0.006553152 0.18073076 0.10984435 -0.14943899 -0.07345109 0.09429619 0.06407953 0.062254045 0.023273103 0.12485006 -0.16842598 -0.25930217 0.08777459 0.1874222 -0.05697551 0.059565693 -0.08189104 -0.06863554 0.1550248 0.056723926 -0.12855732 -0.20793082 -0.049897496 0.087138005 -0.023215288 -0.13731717 0.102748886 -0.193299 0.041466907 -0.120534174 0.05630763 0.02093135 -0.051101822 0.011476687 0.062540375 -0.114198126 -0.027310329 -0.02223512 -0.027875213 -0.047262277 -0.036045738 -0.23856176 0.09017345 -0.028952312 -0.104743555 0.045951743 -0.05821573 0.10636381 0.13124779
时间 0.07026482 -0.006028358 -0.12216914 -0.076405875 0.09119271 -0.08027839 -0.18589723 0.012924078 0.07524346 0.0072633293 0.01883669 0.08176918 0.06356452 0.027201073 -0.15506004 0.17568184 -0.0594378 0.07916297 0.099237725 -0.042308964 -0.017393483 0.07142523 -0.027357271 -0.02443248 0.09914769 0.11510399 0.12550963 0.010409921 0.08376516 -0.023429062 -0.09099447 0.062735766 -0.08746884 0.08574472 0.0054029 -0.036555808 0.034392975 0.036541533 -0.03851457 -0.10471773 -0.14056444 -0.093752004 -0.032015957 -0.08436355 0.0072684432 -0.077023916 0.10921813 -0.18292882 0.14976037 -0.021994397 -0.025568638 -0.06296505 0.15461545 0.074754104 -0.17380305 -0.013743655 0.123781264 0.123313725 0.06267312 0.04215578 0.081480846 -0.14315774 -0.22074313 0.056946453 0.18502663 -0.081062295 0.09733555 -0.080071636 -0.10346201 0.17848411 0.047000118 -0.13570255 -0.17895812 -0.027358389 0.030300165 -0.063214965 -0.16730113 0.016412688 -0.20394096 0.03713525 -0.15416889 0.052762922 0.043819718 -0.11224925 0.012752418 0.0049882196 -0.108167544 -0.05339274 0.019239562 0.03041782 -0.030583158 -0.059316535 -0.29403314 0.104429655 0.0028197507 -0.17800559 0.078010224 -0.030412033 0.045103047 0.121696696
》 0.10348957 -0.0817696 -0.047788847 0.10825803 0.23916069 -0.067211285 -0.10455956 0.0044090063 0.04909015 -0.14868467 -0.12699506 -0.11339546 -0.01862605 0.16952154 -0.1746148 0.22580968 0.046797067 0.12299224 -0.054607484 0.14740178 -0.048019268 0.16878596 0.03205518 -0.007222288 0.16440555 0.0981979 0.22014728 0.10707558 -0.046761625 -0.06523219 -0.026540615 0.00754816 -0.06727046 -0.020774322 0.04457988 -0.06515984 -0.1201495 -0.08046812 -0.031199515 0.06073311 -0.14323293 -0.015741214 0.21637939 -0.08212685 0.10849456 0.073432095 0.20513591 -0.047254127 0.19338477 0.043998614 -0.045010537 0.009547546 0.09044271 0.15542164 -0.15385789 0.0664867 -0.04554588 0.061387815 0.013417203 -0.020745412 0.054476805 -0.06858904 -0.13392189 0.11905226 0.049034595 -0.10489757 -0.042319812 -0.073006995 -0.16446038 0.09900843 0.042846408 -0.08385153 -0.115209356 -0.078177676 0.08056946 0.01421677 -0.1491635 0.06609185 -0.19007722 -0.07326972 0.05435831 -0.022098633 -0.008160706 -0.1293771 -0.05193713 0.025322553 0.007270778 -0.029724998 -0.015784396 -0.15168813 -0.07574975 -0.08343718 0.010209932 0.033893216 0.010079207 -0.025624458 0.023335932 -0.072490774 0.009793314 0.06818585
工作 0.109814174 -0.06900093 -0.0859864 0.075139135 0.21734841 -0.07535849 -0.115578 0.0064298576 0.044294804 -0.11468038 -0.11100095 -0.063590825 0.009447367 0.14127387 -0.18651368 0.21030007 0.040204294 0.14434896 -0.047878806 0.1385875 -0.046239644 0.16752595 0.014076245 0.013484773 0.14721815 0.13514067 0.24711914 0.08347158 -0.018912856 -0.052116018 -0.048807286 0.02257683 -0.08931438 0.020584 0.057078093 -0.072896086 -0.098424025 -0.05196153 -0.047870796 0.0066149235 -0.14718619 -0.011763702 0.14237165 -0.07611814 0.08630028 0.07220433 0.18764225 -0.11668173 0.21113987 0.04007927 -0.05178955 -0.0011294108 0.14890909 0.16738185 -0.14819525 0.037762042 -0.0072826743 0.074814744 0.026006728 0.0019874552 0.09101591 -0.10102229 -0.17787535 0.11870362 0.07992066 -0.09856758 -0.009557714 -0.07530549 -0.14593652 0.10565335 0.04412142 -0.11203674 -0.15530747 -0.075927064 0.09347239 0.0035419578 -0.17383455 0.09337536 -0.18939644 -0.045249503 0.00074514124 0.0019490866 -0.0017054308 -0.10432781 -0.043122005 0.036181733 -0.032818332 -0.030064953 -0.029179031 -0.112894975 -0.059984084 -0.08128854 -0.049308106 0.052786667 -0.008109958 -0.04866677 0.019741511 -0.07695347 0.046223532 0.102498114
《 0.11078976 -0.103222616 -0.018642433 0.10027573 0.25408044 -0.062233087 -0.090033635 -0.0059790015 0.07032651 -0.13230836 -0.14733896 -0.11417551 -0.03445366 0.17088763 -0.19721961 0.23959658 0.06089945 0.12525433 -0.060122672 0.1513429 -0.039602924 0.16279384 0.014684297 -0.0039947727 0.16996105 0.09452328 0.23808242 0.1034869 -0.04371833 -0.06716338 -0.042150225 0.009952261 -0.050399788 -0.024811134 0.051509365 -0.09151661 -0.10619963 -0.070030436 -0.002725314 0.04371056 -0.12186032 0.012840304 0.21305847 -0.06327871 0.11382239 0.09983825 0.18926434 -0.042965278 0.18633105 0.019749029 -0.046884984 -0.009517265 0.10744145 0.17804934 -0.14909063 0.09895006 -0.03572421 0.08773923 -0.008048847 0.011438792 0.06598063 -0.04779347 -0.11587994 0.11731337 0.059742935 -0.10039607 -0.04450581 -0.073942855 -0.16226168 0.057370774 0.0251099 -0.088915 -0.1119481 -0.10650896 0.079767235 0.026483499 -0.11819631 0.06144768 -0.15620285 -0.06721933 0.054621138 -0.03444546 0.0052023274 -0.14551201 -0.049620755 0.009959794 0.006043286 -0.019438334 0.0028182678 -0.13453713 -0.05302342 -0.09477776 0.033700556 0.04534085 -0.012973136 -0.029422188 0.0010149447 -0.054178488 0.0014473436 0.057077106
建设 0.05302779 -0.19781162 0.021283714 0.07048772 0.17655765 -0.01671004 -0.0029620253 0.014426808 0.11025282 -0.089330114 -0.12144495 -0.08650828 -0.056449402 0.10871492 -0.27040818 0.2508135 0.094347015 0.13067402 -0.097642295 0.17706273 -0.03284899 0.13021225 -0.020988055 0.06553162 0.11592218 0.10329785 0.2412548 0.045953836 -0.023055127 0.0051511475 -0.08294328 -0.019534346 0.026400499 -0.100642525 0.059034865 -0.20064822 -0.101374485 -0.0748484 -0.004015202 -0.0010574637 -0.094529405 0.10193425 0.1412379 -0.02594374 0.10661801 0.102475435 0.2079088 -0.057405163 0.1556237 0.03808615 -0.062429767 -0.027000166 0.17693137 0.21171436 -0.10358164 0.1291698 -0.055567753 0.1588394 0.10767573 -0.016011816 0.007960549 0.005576112 -0.043064356 0.16837461 0.029958894 -0.06128885 -0.097067185 -0.055700738 -0.1381874 -0.04959045 -0.01874997 -0.11364623 -0.10292464 -0.12354421 0.09584363 -0.001918034 -0.11803163 0.011929209 -0.07592593 -0.058957007 0.086368546 -0.019398913 0.019298386 -0.11297941 0.049688473 -0.05593504 -0.0012850064 0.04206882 -0.04397876 -0.009355238 0.0007507273 -0.07843392 0.046614684 -0.0039814096 -0.024284342 -0.0063714716 -0.05330347 -0.07367904 -0.0062769363 0.06765618
项目 0.13356581 -0.060631886 -0.06296422 0.10289561 0.24671035 -0.07447562 -0.12016173 0.0135192005 0.043069128 -0.14890991 -0.123564236 -0.10633045 -0.008635638 0.15976292 -0.13686077 0.19766842 0.031165378 0.121150725 -0.043700263 0.12522946 -0.057484798 0.1861676 0.03865018 -0.008216714 0.16319013 0.09427343 0.20294909 0.1091838 -0.046479017 -0.060807604 -0.012156954 0.024548449 -0.08818111 -0.017010696 0.035438664 -0.04889689 -0.106423356 -0.08140018 -0.030106645 0.069250256 -0.14638922 -0.052622713 0.21349755 -0.09412351 0.10523553 0.05298739 0.19814144 -0.05196822 0.19767103 0.04953577 -0.033211626 0.027670978 0.07432849 0.14178747 -0.14514394 0.03629827 -0.03423248 0.038614336 0.01945211 -0.038774524 0.065091096 -0.09145121 -0.1517703 0.11425293 0.07121542 -0.10941026 -0.048622157 -0.06228893 -0.15256883 0.13459446 0.04219746 -0.0795197 -0.12889606 -0.06396566 0.07346701 0.0010289135 -0.16749428 0.0697658 -0.2078703 -0.06984733 0.051683597 -0.003453273 -0.0112122875 -0.12746753 -0.047338698 0.052044738 0.011191868 -0.019846458 -0.026218712 -0.16190815 -0.11022276 -0.08442526 -0.020359015 0.04362713 0.013713428 -0.027814588 0.032680586 -0.07400327 0.03318913 0.06980651
新 0.10526803 -0.11683397 0.005198685 0.12935005 0.2631885 -0.059293207 -0.04943196 -6.387311e-05 0.051853206 -0.12399797 -0.17201422 -0.13069887 -0.026720522 0.17084667 -0.19541885 0.20537905 0.09246707 0.13385002 -0.11489719 0.19181266 -0.05082389 0.16374885 0.028823333 0.011385407 0.16241813 0.08899541 0.25611547 0.11641493 -0.065913185 -0.06159089 -0.030296972 0.0075542703 -0.03274004 -0.027210072 0.05726881 -0.09355718 -0.10656577 -0.07100074 -0.0029204106 0.043121602 -0.086976565 0.05954527 0.21463956 -0.033389755 0.11607448 0.14748196 0.15621915 -0.02587623 0.18226273 0.023669912 -0.030060962 -0.017727226 0.10821059 0.19411643 -0.101687096 0.10606368 -0.05676275 0.06718077 -0.039884884 0.029418873 0.06686907 -0.040174264 -0.08505373 0.12161555 0.02540491 -0.091657326 -0.053666297 -0.065116815 -0.12588303 0.0058285478 0.013926858 -0.06939944 -0.09642642 -0.1121715 0.08639761 0.054149356 -0.09868558 0.08957385 -0.11400026 -0.066264905 0.07202732 -0.03439085 0.00043228443 -0.12524256 -0.06565601 0.012675752 0.01585563 -0.018734774 0.002351061 -0.14047356 -0.031245021 -0.103815354 0.109805554 0.038463365 -0.044720624 0.01071333 -0.024740433 -0.043007247 0.0023712525 0.051859286
教学 0.0781848 -0.1298084 -0.014841094 0.12205257 0.20959088 -0.04969853 -0.007296578 0.036006466 0.043440085 -0.12855087 -0.17570177 -0.12146511 -0.0002486991 0.14031576 -0.20150915 0.15911691 0.13066213 0.14195576 -0.14435534 0.20061864 -0.058803674 0.16168399 0.04932944 0.061362054 0.12678725 0.11142844 0.2784268 0.09977769 -0.0890141 -0.026380073 -0.016447969 -0.026107227 -0.0037699675 -0.011242937 0.06475742 -0.16409439 -0.12444122 -0.075495645 -0.03230273 0.04116781 -0.11150865 0.09554701 0.21423124 -0.030989178 0.10538328 0.13391559 0.11562242 -0.046270393 0.1665481 0.079242505 -0.01284657 -0.0092245005 0.13325962 0.21045586 -0.0463581 0.088370375 -0.06033469 0.059374854 -0.0067057335 -0.0046518566 0.07349889 -0.0479339 -0.06947521 0.1274709 -0.029056575 -0.09019252 -0.09298068 -0.053387668 -0.10078646 0.0019513463 -0.0034554661 -0.062666334 -0.10203036 -0.107298985 0.10418073 0.043685142 -0.12806863 0.121024944 -0.10166838 -0.08586866 0.09121183 -0.020864805 -0.012326233 -0.06760696 -0.05761905 0.03297443 0.015230498 0.0071336892 -0.031340912 -0.13451345 -0.018529635 -0.09304121 0.1355501 0.020782588 -0.019520368 0.011685833 -0.029473765 -0.052469615 0.027618567 0.080418795
现 0.14420062 0.014599959 -0.19653207 -0.027901124 0.11419526 -0.07172851 -0.1650666 -0.00014059898 0.025758581 -0.040142372 -0.026895776 0.054074865 0.054428194 0.043646757 -0.10536947 0.12989661 -0.013094924 0.14707187 0.011368118 0.034247946 -0.011275025 0.120710805 -0.029162765 0.015258214 0.064166054 0.15535365 0.16637988 0.00010424155 0.06309571 -0.0148885595 -0.07478714 0.07363479 -0.1338845 0.08917712 0.04349878 0.016423097 -0.021787578 0.021912504 -0.035227045 -0.07409012 -0.09592979 -0.047372617 -0.058612894 -0.08698561 0.040386446 -0.0073915725 0.117265634 -0.21050568 0.20625626 0.00998577 -0.043666497 0.016696066 0.17491391 0.113412194 -0.15399347 -0.08220165 0.095715836 0.052012254 0.06969027 0.021263294 0.122646935 -0.17542876 -0.26240227 0.075440064 0.19029592 -0.052224927 0.069361165 -0.08459286 -0.058761124 0.1577342 0.05436065 -0.1354678 -0.20401557 -0.04498913 0.095135465 -0.032312118 -0.11780912 0.10066902 -0.17512882 0.042837903 -0.12815627 0.05527805 0.020189838 -0.04092846 0.018287579 0.063275054 -0.12427408 -0.016727017 -0.024927985 -0.037342682 -0.03909181 -0.034671355 -0.24436718 0.08667941 -0.02971825 -0.102395386 0.03047014 -0.061101053 0.10474376 0.14046422
  0.08098968 -0.060389902 -0.040293638 0.017837256 0.17815027 -0.07244961 -0.15174796 0.054541256 0.09965224 -0.060783863 -0.09524881 -0.0009269758 0.033904444 0.10680962 -0.21976776 0.24210277 0.01030685 0.08968492 -0.016060187 0.03615538 -0.02879419 0.08938078 0.017463207 -0.023467189 0.16157389 0.14508426 0.21277471 0.07016239 -0.002279102 -0.061179433 -0.09787851 0.06515634 -0.016051026 0.07777285 0.028918706 -0.10638231 0.00049616094 0.0009611941 -0.043036196 -0.017657757 -0.14147636 -0.018959315 0.122300506 -0.0519866 0.081714705 0.022250075 0.10621138 -0.086977 0.20785439 -0.014820419 -0.017480506 -0.08283574 0.16423875 0.15187795 -0.1689903 0.06442201 0.06183311 0.1320761 0.014838812 0.07813824 0.062344678 -0.1301158 -0.17800821 0.10365465 0.12706889 -0.15492326 0.023237057 -0.110217184 -0.10316166 0.16122787 0.055604275 -0.12612425 -0.14040807 -0.08040547 0.03202234 0.0036295978 -0.21395133 0.07673576 -0.18598256 -0.001392601 -0.028150529 0.025286917 0.03918346 -0.14180289 -0.017567893 0.04385784 -0.05150768 -0.08389578 0.004888079 -0.043980323 -0.039061625 -0.067419715 -0.14366832 0.08817264 -0.009485343 -0.15627955 0.08361461 -0.006016006 0.034933615 0.11564497
发展 0.09394004 -0.11855186 -0.03849849 0.10273817 0.22393878 -0.05707382 -0.044452768 0.018566448 0.05754181 -0.12357839 -0.15817064 -0.10774974 -0.0064036064 0.14892715 -0.20827845 0.19612661 0.09332199 0.15274164 -0.10655525 0.17766652 -0.054785028 0.16733685 0.03635116 0.041904222 0.14226796 0.11502549 0.2693456 0.099399984 -0.062207293 -0.03608701 -0.03687278 -0.0014832775 -0.028593779 -0.013871467 0.06855717 -0.14067712 -0.110939756 -0.066506684 -0.030924369 0.03130394 -0.12513979 0.058857825 0.19723374 -0.04609966 0.101230286 0.11777947 0.15643936 -0.063902855 0.18859394 0.05233073 -0.028129483 -0.010341382 0.14727966 0.20813707 -0.09354733 0.08701434 -0.04403999 0.07676533 0.014062177 -0.0024487379 0.07815003 -0.06859163 -0.10856568 0.13134864 0.020495633 -0.0881166 -0.06276211 -0.06678206 -0.12819329 0.037866987 0.015150225 -0.08662635 -0.12143792 -0.1007395 0.106180325 0.033121474 -0.13808717 0.10542401 -0.1327441 -0.0725584 0.064140104 -0.01839959 -0.005230734 -0.09262473 -0.054286513 0.027310358 -0.003964121 -0.007536247 -0.028484423 -0.122218885 -0.03481919 -0.09319628 0.06676655 0.030176967 -0.022175716 -0.013436579 -0.0136177465 -0.060695115 0.031085478 0.08556288
能力 0.09386625 -0.12098761 -0.019958463 0.12819326 0.21374837 -0.05190374 -0.018891646 0.032905415 0.036682166 -0.12990846 -0.17855541 -0.122657366 -0.0064319056 0.14494613 -0.1906189 0.15191808 0.12421985 0.13840915 -0.14451182 0.20010136 -0.06050385 0.17525463 0.047425617 0.055944894 0.13326274 0.10860655 0.28071633 0.10679767 -0.096019164 -0.032471567 -0.010713894 -0.024181895 -0.019021519 -0.010261322 0.06813565 -0.13801964 -0.1261527 -0.07440306 -0.030895978 0.050006226 -0.10274473 0.090066604 0.21751219 -0.029212892 0.10705644 0.14207093 0.11319443 -0.046832707 0.17248529 0.078063056 -0.014945529 0.002348388 0.121840075 0.19391909 -0.0471994 0.078294225 -0.059671666 0.046392605 -0.01820738 -0.002981612 0.08721704 -0.05318512 -0.0747859 0.12458405 -0.026326764 -0.09237368 -0.092150025 -0.054654475 -0.094457835 0.0083722845 -0.005577803 -0.059856575 -0.10748852 -0.103487976 0.11169755 0.048397243 -0.12159501 0.12384613 -0.10279997 -0.08272332 0.08481359 -0.021209655 -0.009779419 -0.07545434 -0.063471586 0.033464517 0.015426523 0.005485415 -0.028593544 -0.14990616 -0.03003216 -0.096221656 0.13582446 0.022443697 -0.020524759 0.02307634 -0.03457694 -0.048794553 0.03578344 0.07911789
校长 0.12151978 -0.082263395 -0.043700006 0.098249845 0.24831718 -0.074813075 -0.09669986 0.013401236 0.059459772 -0.13110553 -0.14734735 -0.1096948 -0.008670637 0.16145754 -0.17808129 0.21357112 0.048893765 0.14151727 -0.06634038 0.14134909 -0.057392597 0.186232 0.034350004 0.0005569983 0.16171855 0.10031306 0.23606151 0.113780946 -0.054048896 -0.06052216 -0.022799524 0.026625285 -0.067952394 -0.009386141 0.046476886 -0.08521662 -0.09554308 -0.0748757 -0.02909554 0.038838055 -0.14018525 -0.014159672 0.20587729 -0.0711533 0.10009097 0.08776589 0.18030512 -0.0618502 0.19643597 0.035503604 -0.030986752 -0.0009664032 0.105308644 0.17060119 -0.12984043 0.065861985 -0.024832198 0.05529417 0.007729763 -0.004812211 0.08143 -0.085428044 -0.13778178 0.11350301 0.066410854 -0.10159676 -0.04643125 -0.0691393 -0.14109726 0.094011396 0.03146424 -0.08106252 -0.1293537 -0.08095995 0.09263527 0.016247185 -0.15012784 0.08107272 -0.17887992 -0.06792455 0.042944115 -0.009393112 -0.00043060904 -0.12012806 -0.06560454 0.030664526 0.0034717456 -0.019590199 -0.013148457 -0.14898011 -0.078419924 -0.09849768 0.010606882 0.0560741 -0.010162773 -0.02677821 0.0070001874 -0.054723162 0.030822866 0.07120682
； 0.07663907 -0.10337354 -0.060303807 0.037490785 0.19473204 -0.07287655 -0.11292786 0.011993405 0.082184784 -0.077149615 -0.10278028 -0.041370653 0.018706528 0.114822954 -0.24593352 0.23307301 0.039977174 0.14455427 -0.02704192 0.11278257 -0.04990732 0.14271726 0.0038291516 0.025242025 0.15139028 0.1331167 0.25342607 0.068273224 -0.00033215352 -0.031498626 -0.077404685 0.019234296 -0.043218713 0.01838304 0.05564254 -0.13684607 -0.060824256 -0.030871948 -0.045063183 -0.041547764 -0.1555676 0.012326149 0.12209301 -0.06440263 0.06759656 0.054140143 0.17490782 -0.12695277 0.18982333 0.019989697 -0.04216122 -0.048129085 0.18785016 0.18789533 -0.14383858 0.07603435 0.02256076 0.13187402 0.047934476 0.025674745 0.078516684 -0.095502034 -0.16045204 0.12105305 0.09019809 -0.09774322 0.002857215 -0.08072614 -0.14861497 0.08185224 0.026671277 -0.12754208 -0.15733366 -0.08899712 0.08145901 -0.007977024 -0.1830303 0.06432185 -0.17470041 -0.036362298 -0.017748203 0.0058894698 0.022681238 -0.12527157 -0.032310564 -0.00077863515 -0.04925176 -0.027709568 -0.008783134 -0.046769977 -0.027855307 -0.09499983 -0.07858576 0.06605326 -0.013119121 -0.090519644 0.015127256 -0.056537163 0.028779496 0.11651287
学院 0.14166985 -0.06389896 -0.06221112 0.10566418 0.25764808 -0.054275267 -0.088590436 0.029269578 0.042950068 -0.18932565 -0.11507089 -0.1469484 -0.00080618984 0.15686058 -0.07175244 0.13889888 0.017858135 0.09013915 -0.055680826 0.09875202 -0.07665351 0.16194828 0.08979348 -0.038637534 0.17429867 0.05655384 0.115171954 0.1355914 -0.0711583 -0.060535032 0.04130919 0.02136855 -0.0430834 -0.075438194 -0.011976992 -0.06748708 -0.11088152 -0.1027427 -0.037174758 0.14069013 -0.15040585 -0.10220192 0.2603355 -0.11505066 0.12187003 0.019146353 0.16566248 0.034636725 0.17177403 0.08677506 0.006420477 0.06720197 0.010757737 0.14064278 -0.10539391 0.021884302 -0.051121704 -0.023238894 0.065239385 -0.10822767 0.008315482 -0.095892645 -0.10064628 0.092902 0.04815879 -0.09571183 -0.08640092 -0.03987978 -0.13008022 0.18603288 0.05699921 -0.02547391 -0.07148613 -0.04452921 0.01596293 -0.020691106 -0.15849498 0.04450786 -0.2150447 -0.08802974 0.13615352 0.009846015 -0.044969633 -0.10789438 -0.036666874 0.09521111 0.061500777 0.020817624 -0.034939565 -0.18954211 -0.15476722 -0.046400487 -0.0011670142 0.017606933 0.033480354 0.006430368 0.06397003 -0.076671846 0.033307076 0.011494845
提升 0.111308575 -0.10835924 -0.032169048 0.12946157 0.2312932 -0.06340284 -0.035612077 0.030539302 0.03519191 -0.13100237 -0.17449781 -0.114618555 -0.009775217 0.15234107 -0.17899866 0.16123803 0.1136142 0.14167565 -0.13544933 0.19571489 -0.05828338 0.18044285 0.039864704 0.0511858 0.13257787 0.11165739 0.27671203 0.102469005 -0.0867115 -0.041106395 -0.011308172 -0.008000106 -0.0409539 -0.001361945 0.069537655 -0.11508592 -0.11571928 -0.07501473 -0.024549948 0.047831893 -0.10323931 0.069270365 0.20453699 -0.03793938 0.10876535 0.13183458 0.123001 -0.052456163 0.18794486 0.06585686 -0.020989899 0.0049520778 0.12117218 0.19520746 -0.06690163 0.06981205 -0.05661882 0.045308966 -0.02429385 -0.00010488217 0.0957682 -0.059611402 -0.09551443 0.12096647 -0.00367874 -0.08874967 -0.083858244 -0.060101885 -0.10492121 0.021595752 0.011046513 -0.06549964 -0.11534406 -0.1018425 0.11674748 0.043956343 -0.12579048 0.13131198 -0.11934672 -0.07653724 0.074622154 -0.021047223 -0.010799175 -0.07879298 -0.06492933 0.040850848 0.0070382557 -0.000745513 -0.025529174 -0.15347491 -0.044866998 -0.09443598 0.111329034 0.035217207 -0.025322191 0.012017392 -0.026402373 -0.05182376 0.04226003 0.08250835
单位 0.09090719 -0.076926045 -0.10466642 0.0076471344 0.17435473 -0.068712294 -0.14164217 -0.0022959684 0.07493764 -0.06621691 -0.07964209 -0.009060133 0.027640413 0.09639861 -0.21635878 0.21932383 0.01763945 0.14460354 0.00966698 0.07592301 -0.045769017 0.13335508 -0.009129953 0.009353289 0.14006583 0.13806441 0.2267133 0.053430863 0.0280291 -0.031603456 -0.08334948 0.034233034 -0.07647033 0.030802684 0.051359665 -0.09632782 -0.043466676 -0.014374304 -0.04127534 -0.061031185 -0.15807994 -0.018260755 0.07312232 -0.0758337 0.053839833 0.026531037 0.17659256 -0.15799092 0.19457072 0.008055147 -0.050738133 -0.03264835 0.19100225 0.16900015 -0.16186826 0.042218458 0.05629771 0.13021469 0.063117996 0.023503033 0.086118974 -0.115379356 -0.19480251 0.10930889 0.13742258 -0.087098315 0.0323503 -0.08211234 -0.1465309 0.11232337 0.04811127 -0.14259994 -0.16783182 -0.07618319 0.07469329 -0.018355273 -0.17677046 0.06222948 -0.1896794 -0.020395258 -0.051672783 0.019950908 0.01997823 -0.11971247 -0.025707884 0.006922705 -0.065864794 -0.019206073 -0.005262802 -0.036023036 -0.033622317 -0.07929542 -0.15381838 0.07985857 -0.0068752947 -0.102658905 0.025204202 -0.059101574 0.04393865 0.12219435
人员 0.06758332 -0.07799115 -0.099586 -0.010582055 0.15377478 -0.079177655 -0.1486312 0.0010680582 0.08237721 -0.048896246 -0.053293314 0.003782869 0.031279095 0.07913924 -0.22732505 0.22369856 -0.0008265777 0.13909723 0.033241913 0.05131787 -0.04080395 0.124834195 -0.018744962 0.009837327 0.14105003 0.13897453 0.21380606 0.044487476 0.0426709 -0.021512281 -0.09502066 0.028795283 -0.06417276 0.036795255 0.04899224 -0.11346153 -0.026771786 -0.0028242923 -0.050478186 -0.09275184 -0.16512409 -0.026418366 0.055056654 -0.07486842 0.037240047 0.009438692 0.17456624 -0.16915882 0.17787102 -2.7547943e-05 -0.05246862 -0.05140111 0.1975132 0.16352695 -0.16193275 0.049134485 0.06166366 0.1465493 0.07262404 0.024822712 0.07912053 -0.10822372 -0.18859078 0.10125609 0.1374383 -0.08258188 0.04564008 -0.08260076 -0.14602125 0.10543912 0.03772207 -0.14251822 -0.17337467 -0.067798644 0.06417572 -0.029746346 -0.18555738 0.044895496 -0.19233683 -0.0077821244 -0.07584157 0.028098244 0.024430921 -0.11112691 -0.025079697 -0.013849519 -0.07414665 -0.033777453 -0.0036348104 -0.008659293 -0.024120174 -0.083482936 -0.17406553 0.08817973 0.0010210759 -0.11593355 0.030277247 -0.059643924 0.03669521 0.12827225
开展 0.14195096 -0.07844112 -0.05450158 0.11260176 0.26397336 -0.06257986 -0.09991383 0.021538863 0.050480418 -0.16520599 -0.13394904 -0.12659237 -0.009947407 0.16436993 -0.12840018 0.18354397 0.034843862 0.1168838 -0.06814611 0.12699802 -0.061358515 0.17413557 0.057701785 -0.011832787 0.17292127 0.08781164 0.18313624 0.12259536 -0.056897286 -0.059823763 -0.0011630121 0.024780193 -0.061875194 -0.0451547 0.021653824 -0.06993378 -0.11161699 -0.089061655 -0.02564516 0.09445629 -0.13847485 -0.05429366 0.23144528 -0.09660937 0.12161269 0.058097806 0.18363063 -0.014779496 0.19788767 0.06508598 -0.017732756 0.03630804 0.06553506 0.15703748 -0.13032433 0.035127036 -0.041857604 0.018669905 0.038141746 -0.05616145 0.042777207 -0.08993048 -0.12845214 0.11621944 0.06290004 -0.10199352 -0.069965824 -0.05787022 -0.13858847 0.1409432 0.04695459 -0.05908672 -0.10720092 -0.06870294 0.053898748 0.0011747949 -0.15795836 0.06788795 -0.1982693 -0.07452445 0.0934614 -0.0013222075 -0.021985332 -0.11954938 -0.036323883 0.067738645 0.027220706 -0.0015067615 -0.03147917 -0.1675628 -0.11368916 -0.07161402 -0.0018714644 0.028970454 0.008673921 -0.013149426 0.03399003 -0.073783696 0.03596422 0.041713994
地点 0.06486842 -0.020380376 -0.11405973 -0.07500528 0.09764304 -0.07490599 -0.18309264 0.008436702 0.0843244 0.0039561223 0.014200221 0.074226685 0.06056773 0.03131853 -0.17273536 0.18831208 -0.058755443 0.07923503 0.09903298 -0.041973896 -0.0227723 0.07167963 -0.02702926 -0.021760505 0.10895091 0.11189982 0.12890235 0.0144287115 0.0805759 -0.021043984 -0.093453735 0.058505625 -0.07567268 0.07018009 0.0064295977 -0.054511033 0.034172155 0.033355873 -0.0388627 -0.10383377 -0.14799616 -0.09002979 -0.019129131 -0.08516673 0.010368914 -0.076356106 0.120001994 -0.17641419 0.14977275 -0.022034176 -0.025357284 -0.068415724 0.1617023 0.0804467 -0.17388019 0.0031761406 0.1208806 0.13694112 0.07140257 0.035926215 0.07576126 -0.13223816 -0.20947362 0.060510654 0.18093407 -0.08513349 0.09408298 -0.08190698 -0.11393441 0.1719598 0.043851938 -0.13912317 -0.17491414 -0.033132184 0.025112072 -0.065910764 -0.17401406 0.009330557 -0.20277737 0.029404707 -0.14688407 0.051642656 0.04565221 -0.122370586 0.010220407 -0.004850067 -0.10658163 -0.049276892 0.022492586 0.040864337 -0.029575707 -0.06003523 -0.29024127 0.100650504 0.004623551 -0.17691863 0.07401293 -0.028608602 0.041656416 0.11751392
委员会 0.07077151 -0.12436447 -0.08700149 0.0007739771 0.14276524 -0.04824019 -0.11025668 0.0013972147 0.11366489 -0.0470749 -0.070385136 -0.0146354735 -0.003612808 0.06354314 -0.26699787 0.25100842 0.019122556 0.13849792 0.007837218 0.07669127 -0.035643034 0.12554422 -0.02414055 0.035483066 0.13057359 0.1244882 0.2328212 0.031227633 0.030527895 0.003251883 -0.096724644 0.016473025 -0.017820641 -0.019136427 0.051421348 -0.15433691 -0.0483655 -0.027891057 -0.028490197 -0.08469681 -0.14681463 0.015668448 0.06720329 -0.063978545 0.054131296 0.028597305 0.1842199 -0.14207923 0.17491749 0.0035674064 -0.05534625 -0.04244916 0.2130813 0.17593819 -0.14944133 0.08131101 0.045761064 0.18596414 0.109607756 -0.00026179373 0.048667207 -0.08627773 -0.15478319 0.14009364 0.119545475 -0.08459839 0.0031110474 -0.085249074 -0.14586385 0.058720995 0.027272383 -0.13988875 -0.16787174 -0.09636955 0.073205724 -0.037086878 -0.16830477 0.03390472 -0.15797882 -0.01518396 -0.02685549 0.031106206 0.039271854 -0.13330528 0.016374324 -0.0369357 -0.06509507 -0.0013206318 -0.007237128 0.019719848 -0.002468062 -0.07752656 -0.16044469 0.05237223 0.0074444246 -0.10733256 0.005469669 -0.06305535 0.034693446 0.1231028
工程 0.12284008 -0.07883514 0.03237579 0.15047285 0.29200104 -0.06282973 -0.092185706 0.006144405 0.03588693 -0.14390777 -0.16037357 -0.1478666 -0.03183822 0.18780169 -0.14606902 0.19391951 0.055912297 0.09254213 -0.076934 0.16844246 -0.050886303 0.17945549 0.041757785 -0.01868881 0.19527227 0.0557164 0.2197126 0.13468763 -0.080046944 -0.08656806 -0.013931956 0.0113782175 -0.06558109 -0.032349568 0.033636056 -0.023013758 -0.10225529 -0.09461607 0.0009322512 0.082274124 -0.07915577 -0.0089352485 0.25630808 -0.047236092 0.12415296 0.12769733 0.16992939 0.009738048 0.17314705 0.023647232 -0.029774511 0.0031159783 0.03341514 0.13097453 -0.12354864 0.08924503 -0.07037064 0.03128751 -0.07645299 0.020970345 0.050279357 -0.03429759 -0.08494956 0.094741784 0.02646872 -0.11120709 -0.055570498 -0.049663458 -0.13369834 0.051960733 0.004192765 -0.041955393 -0.08431288 -0.087500595 0.04768586 0.048151035 -0.10491687 0.060375746 -0.13702244 -0.0766146 0.07371811 -0.03813113 -0.0055793524 -0.15351723 -0.082248606 0.029144932 0.044768963 -0.025852473 0.01575394 -0.19070365 -0.08184489 -0.110954836 0.11501303 0.049331084 -0.02222451 0.019866845 -0.008448172 -0.038066626 -0.010590335 0.017284552
事项 0.12997822 0.047155026 -0.20690593 -0.059238274 0.056591593 -0.079341464 -0.17151119 -0.006179235 0.018272266 -0.010502819 0.014712523 0.09793411 0.057633944 0.015432529 -0.07191604 0.09679959 -0.040226784 0.11046241 0.048938207 -0.01622109 0.0059862426 0.08611236 -0.04287746 0.0032796185 0.034269057 0.13856155 0.11738383 -0.020893015 0.08341213 -0.009399922 -0.075560376 0.08272315 -0.14546405 0.10497405 0.027875775 0.05481139 0.010397015 0.053471528 -0.0242075 -0.09988121 -0.07512828 -0.06925937 -0.12318883 -0.08549702 0.013063815 -0.04640203 0.07742132 -0.21781328 0.16925779 -0.008330496 -0.04669728 0.0071544917 0.15530287 0.061942175 -0.14476287 -0.11197928 0.12526445 0.050892726 0.064341806 0.034117125 0.12542912 -0.17353253 -0.26634175 0.054418523 0.2075139 -0.037549 0.09505854 -0.075640045 -0.039229155 0.16021827 0.058308788 -0.12861727 -0.20067915 -0.023164805 0.07275655 -0.034957353 -0.1019449 0.078464635 -0.17431605 0.071780436 -0.17026888 0.06605269 0.02865149 -0.024920125 0.03138917 0.055607896 -0.13722342 -0.022215076 -0.01371772 0.0024458794 -0.037360612 -0.016707245 -0.29819697 0.09641779 -0.022024238 -0.119141385 0.042785875 -0.048259035 0.10970114 0.13576345
等 0.09062103 -0.1030184 -0.064117305 0.06378423 0.20887847 -0.07019621 -0.09867687 0.01435884 0.071510226 -0.10307769 -0.12001668 -0.06864061 0.0077631185 0.13177669 -0.2257326 0.21896009 0.059745464 0.15319723 -0.056361433 0.13392085 -0.053776175 0.15933466 0.013102158 0.029690139 0.14790063 0.12945768 0.25864366 0.08047444 -0.021517886 -0.039801523 -0.062271878 0.017269574 -0.050457112 0.0075160246 0.06154721 -0.12724213 -0.084158406 -0.04665827 -0.039587475 -0.012409504 -0.14996953 0.021592226 0.14840886 -0.06546205 0.08103954 0.07662595 0.17675252 -0.10925126 0.19869015 0.035239846 -0.041966293 -0.022793261 0.16982877 0.19588386 -0.13231519 0.067864604 -0.0005598113 0.10205491 0.043143246 0.010110921 0.07679462 -0.09241314 -0.15358217 0.12759317 0.07069491 -0.09814617 -0.024087125 -0.079545714 -0.14203554 0.08009682 0.030568566 -0.11427401 -0.15123478 -0.09158136 0.091890864 0.0046214084 -0.17297159 0.08303517 -0.17481811 -0.047053933 0.013755048 0.0002586596 0.0088121435 -0.110501274 -0.037663423 0.0134895 -0.033197753 -0.020326154 -0.021778457 -0.0859328 -0.040265523 -0.08901619 -0.03792012 0.052182578 -0.008555682 -0.0632296 0.0076844865 -0.06583449 0.03554 0.10875688
集团 0.026210768 -0.21713637 0.020386495 0.011969063 0.12672201 0.005396617 -0.0037460672 0.0040026004 0.13674091 -0.052127857 -0.0769121 -0.03908618 -0.074467 0.060615633 -0.29543382 0.27422062 0.06357546 0.10988359 -0.055299465 0.14028211 -0.016020104 0.09030926 -0.06256029 0.06963549 0.0916151 0.09069235 0.19927467 -0.0026657588 0.022360811 0.03451752 -0.11916946 -0.0190973 0.037921187 -0.12809007 0.0419047 -0.21656245 -0.072770976 -0.062189315 0.0042858194 -0.04991567 -0.08573756 0.10028216 0.06765285 -0.028101949 0.07990812 0.057859853 0.23202465 -0.07953482 0.13598791 0.017618842 -0.08482109 -0.035267442 0.19417965 0.19818723 -0.12151666 0.12318306 -0.02951709 0.21735685 0.16941163 -0.02282683 -0.028029682 0.02508145 -0.03130522 0.17649259 0.073116094 -0.046305187 -0.08542775 -0.05215982 -0.14413363 -0.06440161 -0.024087146 -0.13693768 -0.09940317 -0.114287525 0.08750839 -0.04356532 -0.11616504 -0.04788641 -0.051668193 -0.035175696 0.056200575 -0.003555496 0.042818453 -0.122769356 0.11249472 -0.10544459 -0.018540392 0.065347426 -0.04561716 0.08194707 0.020065146 -0.057156608 -0.032547217 -0.01345555 -0.013005294 -0.026672065 -0.05171554 -0.07767538 -0.025799397 0.063567996
学习 0.109020665 -0.07720014 -0.08792263 0.054669026 0.19391127 -0.07933145 -0.096154444 -0.008760338 0.05564838 -0.09453502 -0.12606956 -0.045346685 0.013854798 0.13279642 -0.20094785 0.20040846 0.051707596 0.17158712 -0.057343174 0.13698407 -0.051913004 0.15596119 0.014292225 0.02055754 0.121422455 0.13743009 0.25347704 0.06885961 -0.011796495 -0.02761319 -0.054563127 0.04167315 -0.0596013 0.04051522 0.07507676 -0.11216208 -0.080376685 -0.02758252 -0.03906887 -0.015174204 -0.14946857 0.020187978 0.10645984 -0.054769516 0.07763401 0.078832716 0.15721993 -0.14009985 0.21150818 0.026952432 -0.034552176 -0.021011228 0.17263523 0.19756569 -0.13014749 0.047980517 0.021272747 0.07641591 0.02022401 0.022843836 0.11278444 -0.11532284 -0.18364145 0.12271936 0.09918689 -0.091050126 0.0016118995 -0.084733635 -0.13756275 0.0848498 0.056445416 -0.13078204 -0.16515082 -0.08509062 0.11818769 0.019015899 -0.16162041 0.10432317 -0.16493225 -0.040834323 0.003536096 0.0002876995 0.014830294 -0.10588411 -0.050273277 0.02847552 -0.058803435 -0.02712173 -0.02673436 -0.08488153 -0.024410063 -0.08434096 -0.050535392 0.06529052 -0.034391366 -0.07320218 0.0062915003 -0.061201785 0.064658895 0.11908805
管理 0.092588626 -0.12642615 -0.04514058 0.082017764 0.21401745 -0.05608794 -0.06183566 0.012712685 0.066759385 -0.11212174 -0.14544348 -0.0927204 -0.009001416 0.1401713 -0.2261458 0.21572505 0.0805291 0.15455242 -0.09048702 0.16864589 -0.054763272 0.16460522 0.018653506 0.04174932 0.13897267 0.120225176 0.26971275 0.08958765 -0.039717913 -0.028174503 -0.04785834 0.0019553762 -0.029201344 -0.018528562 0.06822848 -0.14097735 -0.100518554 -0.064677514 -0.029197486 0.003613444 -0.12854452 0.050427873 0.1695125 -0.05495927 0.09166974 0.10103776 0.17278916 -0.08399282 0.19865477 0.042914547 -0.040761273 -0.014652494 0.1662935 0.20462707 -0.11015691 0.083399214 -0.02654901 0.09872374 0.03827396 -0.0033632747 0.07017026 -0.065876156 -0.12006628 0.13932128 0.047537055 -0.08678294 -0.056044556 -0.077853434 -0.13885641 0.034279928 0.019488748 -0.100518234 -0.13531469 -0.1017941 0.10837363 0.019980513 -0.1462342 0.09178515 -0.14367089 -0.064439 0.043440517 -0.009693929 0.0053969854 -0.10564302 -0.03750142 0.0069264905 -0.019707615 0.001091556 -0.023848806 -0.0951847 -0.034028385 -0.09458883 0.016330972 0.03849106 -0.015160921 -0.030838305 -0.013729324 -0.06725845 0.030753374 0.09188529
专业 0.090509176 -0.122190915 -0.039162647 0.089295276 0.21373399 -0.05968936 -0.05228151 0.01908984 0.06325462 -0.11392774 -0.15225366 -0.09914026 -0.0033246304 0.13734438 -0.22341211 0.20403934 0.09016063 0.15135896 -0.10044461 0.17140141 -0.05706724 0.1642044 0.02975448 0.042820893 0.1448697 0.12043785 0.2738538 0.097083546 -0.0510403 -0.03600174 -0.042549998 0.0005149659 -0.019610444 -0.0066150273 0.06427265 -0.1484715 -0.1036729 -0.061571524 -0.03329224 0.015065532 -0.12970653 0.0566971 0.18912818 -0.046707533 0.09162851 0.10980826 0.15250705 -0.076767415 0.18817367 0.049364597 -0.026171084 -0.018568644 0.16168618 0.21104982 -0.09542935 0.08841657 -0.031622678 0.08943996 0.021527044 0.0037690476 0.078217566 -0.07119553 -0.11369681 0.13461563 0.030487072 -0.093943685 -0.054407027 -0.07097512 -0.12708507 0.036182385 0.01823077 -0.0936418 -0.12940271 -0.103109434 0.10525368 0.028175248 -0.15092392 0.100404605 -0.13915059 -0.06589501 0.05364869 -0.0124489255 0.0031116738 -0.09601405 -0.055066913 0.01833388 -0.0071561136 -0.005941601 -0.023244163 -0.10807533 -0.031465303 -0.09995662 0.044444334 0.039910004 -0.019319002 -0.030044917 -0.015157917 -0.058934517 0.033199202 0.092647694
有限公司 0.032268602 -0.21347329 0.020924725 0.034551937 0.14711376 -0.0060508517 -0.0094524715 0.009130031 0.13384089 -0.069358766 -0.09150139 -0.0551086 -0.05865698 0.07884272 -0.28981024 0.26888514 0.07248825 0.11385054 -0.06583326 0.1425294 -0.020605968 0.111710384 -0.042756572 0.061768603 0.10446751 0.097194105 0.21035814 0.023062361 0.011523449 0.026297813 -0.1020312 -0.021264197 0.032165505 -0.11592054 0.048716232 -0.21449238 -0.080922015 -0.06996285 0.002933881 -0.030698908 -0.09423876 0.08695882 0.09681891 -0.032429073 0.09979475 0.0677611 0.22661082 -0.06812043 0.14421678 0.03107692 -0.07922856 -0.033756115 0.19170608 0.1979016 -0.12428971 0.13288692 -0.032234646 0.19894561 0.15691864 -0.025455343 -0.017909765 0.015006451 -0.03525068 0.17476186 0.060563363 -0.051997546 -0.08753636 -0.05490565 -0.14856291 -0.05803718 -0.023469487 -0.13567863 -0.10467523 -0.11993345 0.090976946 -0.031243395 -0.11997894 -0.03428402 -0.07416658 -0.039157458 0.07056328 -0.004657387 0.033912715 -0.12016364 0.09284663 -0.081901304 -0.013757182 0.05535024 -0.047471903 0.048909307 0.0040710787 -0.064180635 -0.019235568 -0.0014787456 -0.013979349 -0.028501038 -0.05536203 -0.07900981 -0.011214294 0.07133414
研修 0.1407944 -0.0612846 -0.06945173 0.10604228 0.25522083 -0.06718772 -0.10698934 0.021259192 0.042927153 -0.17415282 -0.114313476 -0.12554571 0.0057019163 0.15970288 -0.100464724 0.15838188 0.02298194 0.10249424 -0.049618598 0.10336804 -0.07227385 0.1735026 0.07327862 -0.027381362 0.17246532 0.082101494 0.15075172 0.12429447 -0.055494625 -0.05890708 0.014931344 0.03249388 -0.06908913 -0.0441247 0.014781787 -0.055370566 -0.10754804 -0.08952304 -0.038798317 0.112553224 -0.15534656 -0.08565302 0.23714884 -0.11344107 0.11093902 0.039201725 0.18400145 -0.0074502933 0.18868281 0.07491386 -0.011600533 0.05128104 0.04493179 0.13911965 -0.12488763 0.017400928 -0.03654718 -0.006261748 0.05285916 -0.07770323 0.032247044 -0.10606313 -0.12889117 0.10607947 0.068159744 -0.10364449 -0.072867796 -0.04618318 -0.13578114 0.17625178 0.052241042 -0.05188032 -0.09875292 -0.046237666 0.04411784 -0.014880814 -0.17138237 0.059056982 -0.22073269 -0.08392542 0.099424794 0.0042039338 -0.03264897 -0.115338705 -0.04199851 0.0819838 0.037196275 0.0050913095 -0.03727528 -0.17780209 -0.14046344 -0.065133035 -0.025193851 0.02849356 0.0231844 -0.010381454 0.056812827 -0.07392171 0.04136993 0.03451653
举办 0.09831214 -0.1103046 -0.044777796 0.06655552 0.22161694 -0.066331424 -0.08878258 0.014939782 0.06637626 -0.095135 -0.1280177 -0.06588778 0.0051082326 0.1310769 -0.2255622 0.21978654 0.06392995 0.15330085 -0.07337173 0.15061037 -0.0514472 0.15464641 0.013398352 0.030850122 0.1507974 0.12932764 0.2596297 0.088128306 -0.023733974 -0.04053448 -0.06792698 0.02118481 -0.04309907 0.009079509 0.06261976 -0.12661248 -0.08406384 -0.048575062 -0.03214609 -0.0017550191 -0.13368392 0.030798871 0.15224051 -0.052306794 0.09000119 0.09186503 0.17414701 -0.099761724 0.20579016 0.03393825 -0.03581867 -0.023356928 0.172897 0.19801782 -0.12687159 0.07589344 -0.008652024 0.106555745 0.027056782 0.020587582 0.08320717 -0.0867617 -0.14687744 0.12881976 0.07017938 -0.10474954 -0.027286513 -0.082364514 -0.1414109 0.064511895 0.02939259 -0.11142308 -0.14800498 -0.098947465 0.09134089 0.015496904 -0.16580003 0.086883314 -0.15682817 -0.04605064 0.021410689 -0.004485895 0.015241023 -0.11565653 -0.03907468 0.024184601 -0.026605984 -0.021464704 -0.022863785 -0.08175439 -0.027627483 -0.09528273 -0.015822873 0.04798936 -0.022236602 -0.05968231 0.0042033265 -0.06318158 0.033865046 0.09898141
师范学院 0.1353246 -0.07078204 -0.059609104 0.111465566 0.25100777 -0.05649858 -0.07566408 0.030664695 0.042697243 -0.1924029 -0.11720949 -0.15326883 -0.00045130312 0.15880814 -0.083568305 0.14158335 0.027022326 0.09154893 -0.06465734 0.10870295 -0.07058339 0.15974475 0.08782699 -0.029600056 0.16706237 0.06484402 0.12543947 0.13426065 -0.07362004 -0.060289506 0.04098002 0.01857479 -0.040049326 -0.07691821 -0.0027244189 -0.079632595 -0.12561445 -0.10561128 -0.038001746 0.13262932 -0.15081124 -0.08243712 0.26654685 -0.11273835 0.12246024 0.036841825 0.1658508 0.025129179 0.17207225 0.09415784 0.0059119095 0.058449045 0.01670295 0.15076777 -0.102790765 0.02732067 -0.060313195 -0.021214876 0.06390771 -0.10800297 0.011318521 -0.08770213 -0.09176276 0.098230414 0.03403445 -0.093863495 -0.094660036 -0.034668032 -0.12992185 0.17056865 0.056799915 -0.024252571 -0.07334775 -0.04948584 0.032846104 -0.012648295 -0.15885769 0.054172 -0.20942461 -0.09773441 0.1439595 -0.0026967775 -0.048270803 -0.101705864 -0.03901303 0.09158955 0.06228228 0.013630318 -0.042868525 -0.18651228 -0.14507894 -0.05050258 0.020323874 0.0051438594 0.030171046 0.0049136556 0.05021401 -0.07407451 0.030989496 0.015774632
相关 0.09522635 -0.07506169 -0.119023085 0.015461423 0.16878529 -0.076016985 -0.13121042 0.005008772 0.06622823 -0.071892664 -0.07984783 -0.00889467 0.029071737 0.09575513 -0.2180296 0.20995048 0.024622211 0.15820155 -0.011721052 0.09580317 -0.036381636 0.14417845 -0.011992711 0.027644886 0.12576576 0.1472282 0.23693043 0.044778936 0.022194449 -0.022571139 -0.086136684 0.033515066 -0.07761423 0.036515713 0.059225753 -0.09354046 -0.052306738 -0.012359829 -0.043329813 -0.06942176 -0.14437819 -0.00036496494 0.0587064 -0.073732845 0.0584104 0.03888085 0.17155868 -0.1675572 0.20169811 0.016484044 -0.055730615 -0.028826134 0.2002157 0.17455591 -0.15242045 0.025385298 0.047744438 0.12036359 0.06603293 0.023154454 0.09512822 -0.11889437 -0.20060776 0.11019762 0.12795506 -0.080088556 0.024219085 -0.0873337 -0.13148674 0.100151785 0.042675022 -0.13489193 -0.17724599 -0.07853138 0.090139166 -0.014254881 -0.16928293 0.0797487 -0.18466474 -0.012567534 -0.05333645 0.02236789 0.02062544 -0.092044085 -0.02050866 0.013820024 -0.07855778 -0.018147139 -0.014639195 -0.038116924 -0.03175109 -0.07484085 -0.14155939 0.072682075 -0.014687549 -0.09201974 0.01688382 -0.06636802 0.05503669 0.13341022
公司 0.054456018 -0.11600511 -0.086149454 -0.014097144 0.12695105 -0.05804552 -0.1256922 -0.0051518963 0.11044549 -0.032466527 -0.045786634 0.0019393048 0.006742234 0.052271146 -0.26724616 0.24607949 0.005883725 0.13292135 0.038958654 0.052875243 -0.038931463 0.11399904 -0.03576007 0.030926837 0.12808976 0.1198348 0.21469897 0.020893138 0.047749616 0.0081562 -0.104570195 0.017860522 -0.020355808 -0.010977545 0.05288096 -0.14636724 -0.024923608 -0.015656836 -0.030702993 -0.11080989 -0.14570859 0.00073394156 0.049449503 -0.06600471 0.034182563 0.010747299 0.18060741 -0.15494731 0.15840559 -0.007882523 -0.060194217 -0.05524126 0.21514386 0.16468261 -0.15932897 0.07653255 0.059080604 0.1932113 0.11341617 0.010670048 0.04398383 -0.08891685 -0.15827434 0.12651815 0.13411513 -0.07863258 0.026464984 -0.083362885 -0.1488434 0.0596846 0.028217364 -0.14625894 -0.16512583 -0.084453575 0.059846807 -0.043151077 -0.17828047 0.0144531615 -0.16524234 -0.0064821565 -0.05464332 0.034673817 0.04216953 -0.1305916 0.009269124 -0.05170144 -0.07465708 -0.00538393 -0.0004944209 0.04200666 -0.003118885 -0.08046299 -0.187987 0.06297054 0.012359484 -0.121995784 0.009458875 -0.05985658 0.028607551 0.13245715
1 0.081449576 -0.057770547 -0.0889171 -0.01641582 0.16525352 -0.08481253 -0.1612274 0.022836324 0.09161955 -0.04718879 -0.0488035 0.013362304 0.040588465 0.08357646 -0.20872237 0.22714125 -0.01608724 0.10983466 0.03810924 0.02809488 -0.03834693 0.11493131 -0.0062659844 -0.0055009387 0.14177404 0.12828001 0.18863378 0.05493477 0.038846787 -0.035700724 -0.08543152 0.04771231 -0.061581023 0.049801648 0.025391385 -0.10280865 -0.010839653 -0.005308233 -0.045023944 -0.062305115 -0.169043 -0.056842387 0.07099978 -0.09033572 0.049314946 -0.024000859 0.15173934 -0.14188655 0.17913201 -0.0045801103 -0.02765766 -0.059219986 0.16930549 0.13428247 -0.17133072 0.042231996 0.07094476 0.13734064 0.05688413 0.028704952 0.078084074 -0.12994467 -0.1973897 0.09447775 0.15002783 -0.107539654 0.047068484 -0.08726619 -0.1408209 0.1530864 0.04383333 -0.13343164 -0.1743641 -0.061428763 0.05549617 -0.043081418 -0.1874299 0.03250821 -0.20793907 -0.0062377583 -0.07607789 0.0312357 0.037067827 -0.13749814 -0.006706325 0.010600445 -0.07281439 -0.044398665 0.003978132 -0.0166482 -0.04274289 -0.07953397 -0.19980039 0.08416074 0.0013589968 -0.14786942 0.06567598 -0.042375356 0.036626622 0.12069317
召开 0.08801065 -0.12746137 -0.053586755 0.03451476 0.197664 -0.05450001 -0.09448207 0.015061133 0.091347635 -0.08204331 -0.10318123 -0.04027718 -0.0041469093 0.11097071 -0.2444753 0.24885002 0.03951817 0.1400319 -0.044993155 0.12534982 -0.040567666 0.14076775 -0.0074631786 0.031883042 0.1420773 0.13367546 0.24000679 0.06148024 0.005956559 -0.020716416 -0.08775401 0.018576987 -0.03678278 -0.017367892 0.050769873 -0.14633574 -0.06869577 -0.045315184 -0.031237025 -0.02272334 -0.13949564 0.018980155 0.11322735 -0.058799498 0.089270346 0.054078713 0.19730675 -0.11427479 0.20275404 0.029318316 -0.052492946 -0.0305912 0.18917872 0.1895872 -0.15313408 0.07729578 0.0053963596 0.14448206 0.08121192 0.0045249783 0.060129706 -0.077135585 -0.1456306 0.14329252 0.09790388 -0.094476044 -0.026878018 -0.08122074 -0.15114486 0.066578925 0.02757773 -0.13568203 -0.15510222 -0.09687854 0.08964528 -0.018975198 -0.1703602 0.049287625 -0.15795787 -0.03565076 0.0061297095 0.0088304365 0.025461383 -0.12870207 0.014745079 -0.000771818 -0.04407147 -0.005091058 -0.028633803 -0.026755555 -0.030269006 -0.08233469 -0.0801856 0.043695465 -0.015616146 -0.078018375 0.010079571 -0.07057308 0.029163241 0.10158058
参会 0.074164115 -0.052601956 -0.11755185 -0.020606123 0.14978048 -0.08150327 -0.16605118 0.0062269913 0.07712186 -0.040721167 -0.04792608 0.01793917 0.04443858 0.074913755 -0.21057525 0.20684648 -0.017367173 0.13584302 0.051613964 0.037840415 -0.0326496 0.12443931 -0.018072465 0.0060680923 0.12973242 0.13319638 0.19473894 0.034069456 0.045770787 -0.02129256 -0.09203521 0.041875888 -0.08157175 0.053875837 0.042293094 -0.08290387 -0.008896473 0.005808458 -0.044657502 -0.098072484 -0.1566417 -0.047551483 0.033469878 -0.08539996 0.03369105 -0.005439017 0.16313724 -0.17612028 0.17977034 -0.01127089 -0.04505183 -0.053316522 0.18401477 0.14422683 -0.1662246 0.019848637 0.078102335 0.13282287 0.06832604 0.034873508 0.08342435 -0.1280413 -0.20638587 0.08476112 0.15847637 -0.084959336 0.06194512 -0.082268916 -0.1379454 0.12926458 0.046406955 -0.1362393 -0.17657404 -0.061177205 0.059269648 -0.037848778 -0.17754227 0.046891756 -0.20171294 -0.002151106 -0.09304353 0.029867033 0.025954952 -0.11001436 -0.021341173 0.001028783 -0.08861916 -0.02962578 0.007975307 -0.013749514 -0.037529517 -0.07873132 -0.2042594 0.0901613 -0.0042673885 -0.12719913 0.040778965 -0.04877814 0.046465036 0.13288547
要求 0.10362886 -0.09454248 -0.07005998 0.077210754 0.22411792 -0.0700946 -0.09803489 0.009283873 0.058738682 -0.123190194 -0.123433925 -0.08423352 0.0051691798 0.14387558 -0.20066325 0.2130695 0.050417446 0.14757904 -0.0589469 0.14189823 -0.05124673 0.16840065 0.025986476 0.0145949 0.15419205 0.12156528 0.24313948 0.09268935 -0.027134791 -0.04811287 -0.04383304 0.017129922 -0.058003478 -0.0034890997 0.057693884 -0.10632746 -0.09917506 -0.058379244 -0.04089874 0.016423237 -0.14884889 3.003861e-05 0.17105678 -0.07476967 0.09312449 0.07587561 0.18707395 -0.09100185 0.20155564 0.046048637 -0.040054444 -0.0073785153 0.14758804 0.18354052 -0.13751186 0.06016538 -0.01471559 0.08362832 0.040372387 -0.011525615 0.0720825 -0.09340906 -0.15047191 0.12142107 0.06868201 -0.097939864 -0.031965405 -0.076235875 -0.15224656 0.09518473 0.0397725 -0.10476581 -0.14055781 -0.087563284 0.08884773 0.0048007425 -0.16707417 0.08306817 -0.1863066 -0.0560952 0.033533275 -0.0025558902 -0.0028110626 -0.1119058 -0.041541915 0.029975511 -0.017314076 -0.019073969 -0.026129594 -0.11327017 -0.06045906 -0.083274186 -0.027088631 0.047359828 -0.004788123 -0.044688657 0.018226251 -0.07417315 0.03176049 0.09217862
集团公司 0.07448287 -0.07859065 -0.100232735 -0.008068754 0.155559 -0.06259099 -0.14880519 -0.0032393623 0.08236653 -0.04635926 -0.05968553 0.013835667 0.02898434 0.07817733 -0.23049195 0.22611697 -0.0024045093 0.1333285 0.028013779 0.060853288 -0.03739686 0.11753974 -0.024034165 0.012480908 0.14033075 0.13792805 0.21906044 0.040556632 0.042724863 -0.020900313 -0.09548022 0.03155303 -0.071161956 0.0357325 0.046965197 -0.10055562 -0.029600447 -0.0034477501 -0.04764546 -0.087987326 -0.1530661 -0.023147415 0.049479034 -0.06670628 0.04231848 0.00981634 0.1781085 -0.16701141 0.18570626 0.001061111 -0.058364414 -0.04561348 0.19933827 0.14958495 -0.17265932 0.04843227 0.06204961 0.15546332 0.07591863 0.024794117 0.07782556 -0.10539038 -0.19090998 0.10480024 0.1428181 -0.08292336 0.046964034 -0.08241551 -0.15083678 0.10355752 0.0454947 -0.14569704 -0.1659274 -0.071545474 0.06986575 -0.033267885 -0.1842324 0.05007167 -0.1813773 -0.007568495 -0.070622295 0.02587228 0.0253879 -0.12117014 -0.014600515 -0.0068040662 -0.07892059 -0.026382772 -0.0048765615 6.100163e-05 -0.020961385 -0.07622269 -0.18244547 0.08017565 -0.0048564505 -0.11713778 0.0325631 -0.059244562 0.037083607 0.12234649
内容 0.09388252 -0.08011605 -0.11013846 -0.0009847423 0.16535023 -0.07455646 -0.1446942 0.0053734533 0.08581024 -0.054907378 -0.066038564 0.003449747 0.02628186 0.08270375 -0.21724291 0.22133002 0.012101144 0.14268267 0.012797129 0.06491054 -0.03563782 0.12954482 -0.015252614 0.01663585 0.12894253 0.13911156 0.21677262 0.040992677 0.03530698 -0.023081899 -0.08833149 0.0402031 -0.07058865 0.032050434 0.04518168 -0.09720444 -0.031362433 -0.007287208 -0.033870794 -0.072175644 -0.14763264 -0.017956473 0.05031179 -0.07866458 0.054350488 0.012221198 0.16736247 -0.16621521 0.19522147 0.009374305 -0.046528526 -0.037784398 0.19322498 0.16175117 -0.16374803 0.030105662 0.061281286 0.13186808 0.077793024 0.02271508 0.084254116 -0.12101987 -0.20039478 0.1133262 0.14482139 -0.08617352 0.02943039 -0.08669732 -0.13365984 0.1119624 0.038072433 -0.13988182 -0.18324114 -0.076713145 0.07821006 -0.031190481 -0.1736653 0.054531217 -0.19033109 -0.002500987 -0.06891927 0.029518165 0.03245912 -0.11304241 0.00055422774 -0.0012579433 -0.08203652 -0.018367687 -0.009308713 -0.018948348 -0.028721934 -0.07754456 -0.17450969 0.079126246 -0.011827984 -0.11530637 0.026438652 -0.058333166 0.047679715 0.12895638
省级 0.10406553 -0.023114331 -0.024322266 0.11756701 0.24578965 -0.074254334 -0.15798788 0.021604257 0.0152245425 -0.15227224 -0.06879812 -0.09588158 -0.01250438 0.16665293 -0.10937741 0.20494907 -0.015004464 0.05390036 0.031171603 0.097601585 -0.047920145 0.17763051 0.03344814 -0.035546526 0.18606119 0.06029089 0.14846468 0.10942492 -0.03569634 -0.086432405 0.0018582285 0.011899669 -0.12452882 -0.01924256 0.007857657 0.026820228 -0.10910358 -0.09449547 -0.042242788 0.08919025 -0.15617986 -0.1199108 0.2340094 -0.111469336 0.09349193 0.011723108 0.22826955 -0.020389954 0.15860735 0.04304255 -0.046673905 0.043364644 -0.00076382514 0.06285325 -0.18179166 0.029140662 -0.052928425 0.027489033 -0.0022736716 -0.050236296 0.026596943 -0.0631867 -0.13703083 0.087329514 0.054552328 -0.1211769 -0.03925704 -0.038479798 -0.18029971 0.16601023 0.042878713 -0.06841993 -0.105019 -0.018751543 0.019880444 -0.02569101 -0.19133592 0.01638448 -0.23792368 -0.07747056 0.039619938 -0.00035430456 -0.009339443 -0.15460974 -0.0507249 0.03277139 0.035106495 -0.050585277 -0.0169817 -0.17831977 -0.14870344 -0.08729016 -0.040501844 0.037117813 0.04632722 -0.011945414 0.064785905 -0.079209305 -0.0051882644 0.045809973
课程 0.083020344 -0.13264157 -0.032564968 0.07973103 0.20402071 -0.05618074 -0.048450258 0.026662352 0.07241866 -0.10482756 -0.14532094 -0.086981215 -0.0011983619 0.13116322 -0.23531656 0.2104662 0.09924437 0.15261215 -0.11113854 0.17190978 -0.049646217 0.15987389 0.019218795 0.04574892 0.13034983 0.12920944 0.27479 0.08669305 -0.04280475 -0.031190444 -0.05807662 0.005051075 -0.01653596 -0.00886006 0.06623774 -0.16076948 -0.10216888 -0.055341754 -0.03020917 0.0031141036 -0.13091294 0.07078788 0.16599078 -0.042321585 0.10033138 0.10941773 0.15457496 -0.08522804 0.19128041 0.051281862 -0.028771615 -0.029428156 0.16835609 0.21716803 -0.09357894 0.0868207 -0.02842224 0.107550435 0.031482924 0.008611239 0.07594046 -0.06936451 -0.11116615 0.13943931 0.03256026 -0.09795313 -0.056492113 -0.076137766 -0.12982024 0.03432736 0.008947028 -0.105544336 -0.13102421 -0.112634264 0.10203349 0.02087371 -0.1512419 0.09440457 -0.13026173 -0.06268798 0.047437996 -0.012575441 0.010787024 -0.09556942 -0.030436642 0.018571015 -0.016149228 -0.0046546175 -0.029948013 -0.08741938 -0.018230902 -0.09311018 0.0342295 0.036136836 -0.022706268 -0.033371132 -0.012698343 -0.059740182 0.027868962 0.10070708
: 0.073082894 -0.028506564 -0.08493266 -0.05427828 0.13190815 -0.08518996 -0.17004965 0.032927144 0.09561521 -0.014900176 -0.022715656 0.051961392 0.062269956 0.056816664 -0.18288732 0.2063611 -0.04303545 0.08340216 0.06143139 -0.01973306 -0.03317671 0.07802528 -0.006801409 -0.027634727 0.12521979 0.12407534 0.15529671 0.04357351 0.05704909 -0.03427328 -0.084027566 0.06582519 -0.04804894 0.081864856 0.0060955063 -0.08948487 0.022656526 0.025004042 -0.045399174 -0.070670664 -0.16219711 -0.08476049 0.038363565 -0.08587811 0.032634355 -0.06502585 0.104828544 -0.14373377 0.16622865 -0.01589544 0.0013689194 -0.0871076 0.15795703 0.09889715 -0.17194346 0.03240599 0.10712066 0.13502635 0.04263868 0.04502574 0.0840573 -0.14552966 -0.2019762 0.07565239 0.16370915 -0.11355027 0.07938599 -0.0902454 -0.12187339 0.18214026 0.044672083 -0.13294159 -0.1716968 -0.047560386 0.03607068 -0.050897308 -0.18975227 0.027517552 -0.20766184 0.013035277 -0.1129956 0.042089336 0.04404919 -0.14342868 -0.0024996807 0.022116993 -0.088941485 -0.07019732 0.019359354 0.0072280187 -0.03574079 -0.0719793 -0.24907322 0.09674163 -0.00024180423 -0.18846054 0.095559984 -0.021056361 0.038043853 0.11413796
骨干教师 0.10705511 -0.0692608 -0.010265982 0.12253668 0.26832342 -0.079717845 -0.13322787 0.03251119 0.043857947 -0.13597502 -0.117765635 -0.10842964 -0.0053717666 0.16904928 -0.16824546 0.21246102 0.030017905 0.08863978 -0.027186055 0.13865772 -0.056004923 0.18261546 0.032312807 -0.0056376974 0.20002757 0.084484346 0.2270505 0.117066376 -0.056523003 -0.06992504 -0.026595583 0.01149241 -0.086042926 -0.009898801 0.020959277 -0.042483326 -0.09342039 -0.08675546 -0.034325946 0.054497115 -0.1368521 -0.049889788 0.22684875 -0.07807343 0.103881255 0.071963705 0.18863831 -0.038963664 0.17792 0.040482312 -0.04221972 0.005230232 0.060643956 0.13145237 -0.14934929 0.059547342 -0.042482518 0.05164201 -0.02158619 0.0015291057 0.056777794 -0.064167716 -0.12583192 0.09519954 0.047909588 -0.12172181 -0.044186156 -0.049742494 -0.15589055 0.11253156 0.016272495 -0.074891485 -0.11940899 -0.059253156 0.04432986 0.0055356896 -0.17800942 0.0505597 -0.19602314 -0.077095814 0.038965657 -0.006188859 0.0016199859 -0.15267153 -0.06343577 0.028922712 0.025252221 -0.03361382 -0.003946509 -0.15876545 -0.10213784 -0.111099295 0.017684951 0.057131413 0.008743189 -0.018488593 0.02658327 -0.061753955 0.007089465 0.062135685
组织 0.13706478 -0.08645261 -0.08500125 0.07819427 0.24081638 -0.06664376 -0.10072839 0.017807653 0.06352122 -0.14252278 -0.12660833 -0.09277049 0.01066524 0.14190927 -0.17010865 0.1905651 0.043682884 0.14268741 -0.06606375 0.12732033 -0.06121933 0.17403199 0.04389853 0.0045296606 0.16092603 0.120739385 0.21444315 0.09958474 -0.03236545 -0.043812536 -0.02852348 0.027842926 -0.060839273 -0.018848289 0.037366435 -0.09630432 -0.095212266 -0.06467918 -0.039205514 0.046523232 -0.14490704 -0.025891395 0.18078364 -0.09210708 0.10426452 0.059166968 0.18003987 -0.06851524 0.20860967 0.062262986 -0.022502318 0.017867623 0.12714611 0.18447408 -0.13043034 0.034269344 -0.00836176 0.05442705 0.061064005 -0.037003227 0.065878436 -0.11158255 -0.15519708 0.1238432 0.08551287 -0.0986041 -0.0503826 -0.06632394 -0.13550837 0.12810703 0.045251098 -0.091125704 -0.1358848 -0.079560034 0.075235784 -0.0050935475 -0.16853103 0.078301035 -0.19756816 -0.05642036 0.051552586 0.011265365 -0.012336162 -0.112328194 -0.030516628 0.054494005 -0.008796353 0.0024562308 -0.03357214 -0.12811828 -0.085400276 -0.07528455 -0.044589225 0.042929757 -0.0033479687 -0.039353788 0.029811071 -0.0732268 0.05114895 0.07540717
学员 0.107979156 -0.0808378 -0.07324615 0.043241046 0.20477872 -0.076412685 -0.11984121 -0.004828696 0.07565076 -0.094382145 -0.12386013 -0.057987142 0.005724532 0.13561572 -0.20914707 0.22960135 0.043701366 0.15833102 -0.030825429 0.1087296 -0.044202216 0.16293637 -0.0039724037 -0.0005019476 0.14855604 0.12894706 0.24592616 0.07786472 -0.012707016 -0.04761148 -0.06299222 0.035523802 -0.073493205 0.029140487 0.06201494 -0.09451355 -0.061157644 -0.0338781 -0.017916733 -0.027270373 -0.14880933 0.0067139925 0.122779295 -0.064678706 0.083782695 0.07127021 0.17106874 -0.12537864 0.2041064 0.00736678 -0.041429065 -0.033966765 0.160694 0.18438216 -0.14968301 0.062791765 0.037213843 0.09997443 0.012189369 0.042140156 0.10667305 -0.10318122 -0.1807889 0.105505146 0.11615387 -0.09688839 0.00895925 -0.08335751 -0.13987876 0.08604193 0.044107202 -0.12565416 -0.15830083 -0.093106695 0.09967009 0.009100362 -0.13850005 0.07487502 -0.17895539 -0.03678216 -0.028489102 -0.005946502 0.018251464 -0.11961798 -0.057669412 0.008302869 -0.04921511 -0.028263636 0.003395449 -0.09024494 -0.02691106 -0.099054866 -0.06541897 0.07932136 -0.027318487 -0.0791197 0.009638025 -0.046263177 0.03990538 0.104387075
学校 0.10503471 -0.1051473 -0.05039854 0.08851668 0.22741598 -0.06757841 -0.07976781 0.0129867075 0.06030626 -0.11590308 -0.14487499 -0.09113505 -0.003197484 0.14672537 -0.20898189 0.20892978 0.0741824 0.14988261 -0.077804 0.15617378 -0.05610716 0.17200428 0.027538575 0.023711441 0.15141225 0.12119426 0.26476792 0.098657094 -0.046569522 -0.04102764 -0.044469 0.015930831 -0.047276866 0.0028935564 0.06230616 -0.11833375 -0.09734494 -0.05876301 -0.032287277 0.0144622475 -0.13926455 0.027664043 0.1809439 -0.06017384 0.09167419 0.09606959 0.16669153 -0.08286275 0.19596289 0.0391283 -0.03225928 -0.01229071 0.14595376 0.19581275 -0.116777025 0.07221067 -0.017307637 0.0817834 0.017674005 0.005438598 0.085821286 -0.086034514 -0.13684611 0.12731194 0.05810463 -0.09570941 -0.041321993 -0.07217356 -0.13480641 0.062474966 0.028252663 -0.09915985 -0.1385722 -0.09608972 0.10121398 0.022146327 -0.15089801 0.09636736 -0.16115846 -0.060241967 0.035968445 -0.009920016 0.0041625593 -0.10854749 -0.054894675 0.022752976 -0.015721584 -0.015472364 -0.017247943 -0.11673213 -0.046035085 -0.09689866 0.013257139 0.052138627 -0.021091972 -0.03636566 -0.0040312707 -0.062258646 0.036888752 0.090441115
安排 0.10504603 -0.033642337 -0.12001996 0.0026870638 0.17553912 -0.08633937 -0.16936022 0.0054468303 0.060129825 -0.06854967 -0.049190182 0.0034648615 0.03815188 0.09778069 -0.1730159 0.20608872 -0.014387502 0.12686537 0.02904555 0.050958365 -0.034057993 0.13550271 -0.008426188 -0.0066207247 0.13131942 0.13577707 0.18935888 0.05346204 0.035525225 -0.04384385 -0.07133444 0.04758485 -0.10649401 0.049319636 0.036139164 -0.04648351 -0.03997025 -0.009038556 -0.04824182 -0.04695945 -0.15871218 -0.0645582 0.06308635 -0.0962402 0.051947188 -0.0042963577 0.1727514 -0.15943632 0.19708051 0.01216269 -0.04259639 -0.021262378 0.15417132 0.12666993 -0.1787741 0.003267438 0.056348156 0.10075447 0.052675124 0.011339309 0.09075333 -0.13212085 -0.21738425 0.09155905 0.14852192 -0.097639315 0.044883355 -0.08465061 -0.13848211 0.1609956 0.053473365 -0.1303687 -0.18212575 -0.054806966 0.06504351 -0.034616616 -0.18397698 0.05832664 -0.22110826 -0.00945562 -0.077772714 0.028358078 0.016691519 -0.11193186 -0.016785413 0.02537404 -0.07666952 -0.038895037 -0.0073367534 -0.05444862 -0.059825175 -0.07153268 -0.1900745 0.08365881 0.000659327 -0.112265915 0.056412157 -0.060692042 0.049530514 0.12260168
参训 0.11415086 -0.08168875 -0.085793324 0.040695757 0.20116681 -0.07666703 -0.11672155 -0.0041823275 0.07172494 -0.0963109 -0.12090261 -0.055342235 0.0061756875 0.13524848 -0.20429659 0.21694681 0.045072306 0.16097884 -0.030553797 0.114952154 -0.04558896 0.16136186 0.0019077364 0.005743005 0.13422465 0.14055279 0.24585779 0.07513847 -0.014297495 -0.041729044 -0.059328917 0.04196929 -0.07504541 0.034814004 0.06637259 -0.09257834 -0.06542199 -0.0308809 -0.013801306 -0.02949569 -0.15048727 0.011459107 0.11782639 -0.07459779 0.082649015 0.071338736 0.16049592 -0.13075249 0.21150044 0.014746602 -0.041060273 -0.03048134 0.16976924 0.19266042 -0.13455833 0.056018885 0.03348469 0.09609319 0.01576037 0.03389996 0.11383499 -0.11117823 -0.18109837 0.1167529 0.1194439 -0.08366648 0.0055608046 -0.07994105 -0.1381946 0.0884884 0.04719128 -0.12677662 -0.15904362 -0.094202474 0.10820121 0.014689301 -0.13575599 0.085444674 -0.17512745 -0.043132253 -0.028372014 -0.0055814777 0.01966762 -0.108090006 -0.058595892 0.023218196 -0.05317413 -0.021379465 -0.00027349126 -0.08695899 -0.036878925 -0.09464771 -0.07051523 0.07817367 -0.025277644 -0.077120684 0.0021209756 -0.048286688 0.051846024 0.10655067
全员 0.123741254 -0.048160736 -0.022793483 0.13235141 0.24271952 -0.06277201 -0.093573615 0.014846828 0.026745649 -0.17517596 -0.10927892 -0.1494462 -0.038616836 0.16527826 -0.06900439 0.18151872 0.014701907 0.056015544 -0.026072815 0.10308016 -0.053436056 0.16116636 0.057653625 -0.03501594 0.16362227 0.02677023 0.1274638 0.13056323 -0.07769154 -0.077208385 0.03410811 0.008393604 -0.066829056 -0.07554747 -0.0034686397 -0.022569792 -0.13065901 -0.10874023 -0.02189029 0.14563613 -0.13832293 -0.095715225 0.29723802 -0.095683 0.12407252 0.029528707 0.20473231 0.039603163 0.15032734 0.063137874 -0.021814296 0.064464636 -0.027895115 0.097269095 -0.13894187 0.05023537 -0.091037534 0.0038989051 0.018333161 -0.09946886 0.007285842 -0.04846601 -0.083047785 0.10149206 0.018994395 -0.10887152 -0.09565822 -0.035949677 -0.16707161 0.14642136 0.046134613 -0.022605475 -0.066714644 -0.03869226 0.036743894 -0.0047266395 -0.1403454 0.026751252 -0.20971067 -0.10983094 0.123643294 -0.01889067 -0.032058924 -0.14290944 -0.040545084 0.060652256 0.07540403 -0.013744363 -0.016488226 -0.20418997 -0.15640768 -0.06757731 0.022608023 0.0041266545 0.059154395 0.005522226 0.06248403 -0.062069964 -0.011291762 0.018788973
创新 0.098025516 -0.11190934 -0.045676176 0.089739054 0.2221334 -0.06629425 -0.066814676 0.020215679 0.06124659 -0.115358576 -0.15047044 -0.092990145 0.0010958888 0.14201604 -0.2151021 0.20242122 0.08445187 0.15360692 -0.09363727 0.16681309 -0.055016156 0.16659632 0.026905572 0.036283914 0.14533365 0.12536515 0.26949596 0.094670445 -0.049915705 -0.036692537 -0.04166818 0.007487103 -0.035083514 -0.0012285383 0.06295629 -0.13558403 -0.10103891 -0.05795308 -0.034402695 0.01359243 -0.13295773 0.046145402 0.17809212 -0.052459948 0.095526434 0.10669323 0.1570464 -0.08210745 0.19552806 0.04925074 -0.029151825 -0.015920466 0.15749405 0.20590809 -0.10504992 0.07911978 -0.024072403 0.083745815 0.019460753 0.0080851 0.08566788 -0.07962891 -0.12736642 0.12875794 0.039634254 -0.0933651 -0.051167555 -0.07251232 -0.12810428 0.05193368 0.019335845 -0.09444514 -0.13476539 -0.09982596 0.10356096 0.024746789 -0.15108752 0.10253697 -0.14916503 -0.06251575 0.04473988 -0.010920179 0.0023482817 -0.10021514 -0.050607778 0.026260385 -0.01612746 -0.012337687 -0.02120716 -0.113449864 -0.035166483 -0.09552813 0.02974305 0.045406044 -0.021417804 -0.029634755 -0.0079697855 -0.060515456 0.035927825 0.096587904
轮训 0.11489293 -0.04164452 -0.009638528 0.13343616 0.249194 -0.050251957 -0.106603205 0.018133692 0.030667404 -0.18286076 -0.12006244 -0.14691629 -0.037667356 0.16993815 -0.0714877 0.18708013 -0.0015519607 0.06125294 -0.016100317 0.09772723 -0.055704877 0.17072642 0.0733633 -0.04418325 0.166366 0.03491612 0.122394696 0.13635233 -0.071128376 -0.07689177 0.03990314 0.0005469495 -0.060521286 -0.059484437 -0.000798127 -0.028251225 -0.1273575 -0.11913323 -0.019802568 0.1516193 -0.1420719 -0.11046129 0.29334012 -0.093790725 0.12608613 0.015830563 0.19711342 0.04784193 0.13758184 0.050375585 -0.020232556 0.052302096 -0.032720227 0.070636906 -0.15504262 0.031053465 -0.0896743 -0.016548606 0.014556322 -0.09714471 0.0025236018 -0.05199612 -0.08726615 0.094189495 0.031972043 -0.100704394 -0.08506558 -0.05194861 -0.16332631 0.15873179 0.047428407 -0.022119507 -0.07582618 -0.026568165 0.028115014 -0.010726424 -0.14248475 0.03514327 -0.20981048 -0.10985244 0.12177733 -0.022219373 -0.029066306 -0.14325301 -0.032469828 0.043854944 0.05920011 -0.020248376 -0.011909262 -0.20241368 -0.14837301 -0.06309131 0.01083516 0.00488556 0.056130245 -0.002632228 0.04928234 -0.07460223 -0.0054301387 0.005109743
高校 0.110262565 -0.104718685 -0.050578266 0.08408648 0.2291194 -0.066704355 -0.08277754 0.01278183 0.060384363 -0.113836 -0.14042789 -0.084290266 -0.0012529098 0.14085886 -0.2091718 0.2085294 0.07175782 0.15146652 -0.08103574 0.15577047 -0.055085402 0.16428643 0.023620699 0.02414053 0.15444776 0.12666449 0.26202247 0.09694005 -0.03644795 -0.0455895 -0.050744683 0.014664876 -0.046515785 -0.0029594544 0.057181202 -0.117678 -0.09596115 -0.056547996 -0.029534245 0.015896475 -0.13139294 0.027955273 0.168283 -0.058836572 0.09688714 0.09858194 0.1695371 -0.08488024 0.20442283 0.04248907 -0.03142599 -0.012802796 0.15419096 0.19602956 -0.123336345 0.07072364 -0.019526731 0.087543696 0.018180536 0.011115061 0.08262232 -0.083982185 -0.13957268 0.12909709 0.06105484 -0.09934491 -0.0390641 -0.07335781 -0.13784952 0.06778278 0.026927304 -0.102953695 -0.14226726 -0.10140992 0.094114386 0.019354677 -0.1554083 0.090631865 -0.16082631 -0.055636697 0.035595052 -0.01032488 0.0070700124 -0.111420915 -0.045644935 0.03157476 -0.015879426 -0.01782369 -0.019794194 -0.11063728 -0.044370238 -0.091894306 0.004762941 0.050209925 -0.023471344 -0.037535105 0.0011805589 -0.061926566 0.034773592 0.09252818
会 0.11188739 -0.07854934 -0.09869965 0.047912262 0.20051461 -0.073263794 -0.11856709 0.0072537987 0.060266696 -0.0969261 -0.10696519 -0.041385137 0.017422846 0.1214213 -0.20383753 0.21195227 0.039615538 0.15252586 -0.040744815 0.12019697 -0.04642181 0.15626507 0.010526715 0.019733042 0.14107765 0.14222386 0.2449186 0.07297136 -0.005296809 -0.035352383 -0.06297497 0.032837 -0.076067306 0.025657069 0.05681414 -0.091560096 -0.07311877 -0.034967344 -0.0433511 -0.019995261 -0.14395273 -0.0036406217 0.111034065 -0.07125299 0.0798035 0.06171981 0.17302991 -0.13041468 0.21422876 0.03234581 -0.04595068 -0.013385699 0.17329703 0.17752138 -0.14851914 0.039430838 0.021108968 0.09471124 0.044214677 0.010192581 0.09378747 -0.11559789 -0.18878783 0.1208507 0.10460873 -0.09436299 -0.0019077427 -0.08288248 -0.13407743 0.10628343 0.042680103 -0.1242527 -0.16626787 -0.0814529 0.09435485 -0.0012535343 -0.17216872 0.09456742 -0.18627807 -0.033282947 -0.015005755 0.0128634125 0.011906038 -0.10700407 -0.030823637 0.033450454 -0.051626157 -0.02211162 -0.022565447 -0.077964716 -0.048278306 -0.08238122 -0.08779621 0.06397196 -0.016575575 -0.073454455 0.017907193 -0.068084255 0.05376526 0.11231025
全国 0.097764134 -0.111426115 -0.052685138 0.07520213 0.2183893 -0.06403316 -0.08361482 0.017294163 0.067815356 -0.10898225 -0.13459362 -0.07837814 0.00078755734 0.13488998 -0.22058412 0.21765977 0.066101864 0.15036035 -0.07431709 0.14929174 -0.0541514 0.15958922 0.020201962 0.030712707 0.15198058 0.1262677 0.2617997 0.0895407 -0.033709496 -0.038923495 -0.055799857 0.016693246 -0.038574345 -0.0013863347 0.057047687 -0.13181607 -0.094029404 -0.056706302 -0.03782451 0.007064407 -0.13971466 0.030147973 0.16214369 -0.05846795 0.09348078 0.089864954 0.17369364 -0.0904955 0.19928011 0.041993406 -0.03243685 -0.017101249 0.1642047 0.20027278 -0.12388057 0.074614584 -0.011435015 0.09946344 0.034553934 0.0048958687 0.074232206 -0.085495345 -0.14241023 0.13235459 0.061289366 -0.09966828 -0.037179396 -0.077126645 -0.1398981 0.07058001 0.026422946 -0.10675201 -0.14124462 -0.09538207 0.0951265 0.010336138 -0.16690196 0.08779757 -0.16219412 -0.05674706 0.03400567 -0.0026286067 0.0093219895 -0.11269678 -0.038246367 0.025082506 -0.018567406 -0.016175445 -0.024372732 -0.09201982 -0.0411453 -0.09020361 -0.0074924384 0.045309495 -0.015951594 -0.04704405 0.004640649 -0.0654561 0.035244454 0.09539005
示范 0.12364449 -0.08216554 -0.06755901 0.098741814 0.2319132 -0.07391876 -0.096692845 0.015219953 0.046183217 -0.12996283 -0.13534445 -0.09176721 -0.0045763603 0.15246828 -0.17894033 0.19972162 0.06262198 0.14364173 -0.06918509 0.1470115 -0.053538654 0.18276747 0.029126344 0.01914935 0.14854462 0.120014325 0.24984781 0.09907798 -0.04579653 -0.046100684 -0.03293017 0.016410204 -0.077833846 -0.00047829706 0.058250763 -0.07902098 -0.10925616 -0.0685611 -0.029515928 0.035175834 -0.13425262 -0.0011071501 0.1803943 -0.074100725 0.10077182 0.08025295 0.17975555 -0.08522808 0.20470577 0.05013065 -0.035125814 0.0092330985 0.12215007 0.16780138 -0.12837046 0.047255877 -0.024833182 0.06450977 0.016507147 -0.012350327 0.08708358 -0.09094623 -0.15369241 0.1281477 0.06496346 -0.10001614 -0.04835949 -0.07177474 -0.13717653 0.08973898 0.029906128 -0.09749723 -0.147299 -0.085002705 0.101949506 0.013519507 -0.15777557 0.09064594 -0.1789931 -0.061850447 0.033468883 -0.0047183745 -0.004888829 -0.11207885 -0.047746133 0.03698662 -0.010045776 -0.016156333 -0.029571025 -0.13757044 -0.0722608 -0.089428395 -0.0020620972 0.045612015 -0.007704063 -0.026884645 0.0062073544 -0.07074522 0.04232065 0.08911102
投资 0.026162567 -0.22942692 0.04187535 0.04876139 0.14107156 0.001398777 0.024067897 0.0130370315 0.12758505 -0.076261446 -0.09524353 -0.067365654 -0.07470122 0.077623874 -0.2815782 0.265852 0.08186076 0.10214672 -0.08267038 0.16553587 -0.01365457 0.10900862 -0.048745137 0.07348324 0.09207997 0.08249617 0.19429672 0.017983332 -0.0033959893 0.034570817 -0.103426956 -0.029407248 0.04048765 -0.14459251 0.046883482 -0.21588244 -0.08811673 -0.08327261 0.013331899 -0.01764382 -0.07598604 0.10406781 0.11217582 -0.02476192 0.106494434 0.07632754 0.22620866 -0.043552555 0.12397286 0.029448496 -0.07719012 -0.024255838 0.16563731 0.19341408 -0.103811614 0.13620572 -0.053706493 0.19044611 0.15909058 -0.024436584 -0.0308224 0.041104354 -0.00443579 0.1744046 0.043057673 -0.039891433 -0.11690453 -0.04241069 -0.14451754 -0.081976674 -0.030446295 -0.12452407 -0.088429004 -0.118745446 0.0917224 -0.030854942 -0.10281975 -0.049410325 -0.048727345 -0.04500279 0.09149031 -0.02043586 0.03852577 -0.11715643 0.10871298 -0.092606194 0.0068457653 0.06738438 -0.04753718 0.05458066 0.010641871 -0.061918825 0.019813376 -0.016056437 -0.017976932 -0.0036772417 -0.0652218 -0.08243837 -0.034289256 0.05085352
交通 0.02991492 -0.21249987 0.047440216 0.042888086 0.15353839 0.004020901 0.003620867 0.015481836 0.12947312 -0.07098907 -0.09496864 -0.06826031 -0.078684166 0.08937029 -0.28222448 0.27057812 0.076175 0.10073456 -0.07943822 0.15780981 -0.023433229 0.105892 -0.042400684 0.05863887 0.106432274 0.08794662 0.2098328 0.01966244 -0.0017657741 0.016155355 -0.10033516 -0.024601059 0.03883052 -0.1305678 0.04044155 -0.21181771 -0.09336356 -0.07872281 0.0034780817 -0.0066696918 -0.08770639 0.09883741 0.10741049 -0.024334997 0.1021532 0.07752093 0.23408689 -0.051700164 0.14105767 0.034198772 -0.07887874 -0.030523628 0.17421466 0.19705524 -0.11914592 0.13329282 -0.052116193 0.18997735 0.14142498 -0.028436365 -0.029518839 0.034973998 -0.013150061 0.17838526 0.044483438 -0.057192918 -0.104741134 -0.043111034 -0.14267528 -0.06701585 -0.03188651 -0.12605113 -0.08878856 -0.118119515 0.08585197 -0.02856086 -0.11381158 -0.042633224 -0.056289397 -0.05237043 0.0883787 -0.01172995 0.02805146 -0.121735595 0.09851339 -0.08929836 0.0037770662 0.05658796 -0.053991426 0.03695113 -2.2767001e-06 -0.066483974 0.025016483 -0.01763091 -0.019768206 -0.004908451 -0.05768325 -0.07975453 -0.02041905 0.056281473
线 0.10011319 -0.06676332 -0.10164895 0.009214416 0.18012981 -0.07971172 -0.1425926 0.014042305 0.07591355 -0.066321194 -0.07183099 -0.006113735 0.029400483 0.09991729 -0.20693521 0.21693315 0.008741362 0.13874424 0.0041012494 0.06898019 -0.04394969 0.13936925 -0.0034335447 0.0066727917 0.13914919 0.13722023 0.22234352 0.055319805 0.01851737 -0.0351029 -0.07850026 0.043794323 -0.078125305 0.042907458 0.039488908 -0.08942872 -0.042564802 -0.017820816 -0.04456583 -0.050914705 -0.15217005 -0.031665828 0.07842513 -0.078844436 0.059339523 0.01687026 0.16389258 -0.15140764 0.19779217 0.015329529 -0.03910432 -0.038892828 0.17883274 0.16143267 -0.16009551 0.030317683 0.052151557 0.115715474 0.056821764 0.021551859 0.09163532 -0.1261246 -0.19998151 0.11096231 0.13359132 -0.09353787 0.026673073 -0.08599808 -0.13839553 0.13607232 0.041684702 -0.13410622 -0.17796554 -0.07305894 0.07684905 -0.025295123 -0.18483634 0.067785464 -0.20356645 -0.013861023 -0.060419735 0.02285841 0.024031842 -0.11991553 -0.016670866 0.019983035 -0.069021605 -0.034500003 -0.0070056203 -0.04140669 -0.041331686 -0.08255609 -0.15120743 0.080935866 -0.006047146 -0.115194276 0.03790387 -0.056236714 0.046875015 0.12038223
专家 0.10001093 -0.08576838 -0.08470591 0.0352062 0.19804268 -0.07815043 -0.12941808 0.00905765 0.077434614 -0.08640247 -0.09748855 -0.037747063 0.018538037 0.1154366 -0.21732076 0.22508371 0.028429 0.14792217 -0.022413133 0.09863375 -0.050079767 0.15055422 0.003947772 0.013159739 0.14558505 0.13301662 0.23768662 0.071464084 0.0021713793 -0.039184704 -0.06701868 0.035679206 -0.063729875 0.022309614 0.049658272 -0.105468065 -0.06159982 -0.03106007 -0.03994093 -0.030037438 -0.15745763 -0.011364857 0.113376886 -0.07893143 0.07219365 0.044752255 0.17477632 -0.13237502 0.20042187 0.019203423 -0.038328163 -0.03328225 0.1709958 0.17888711 -0.14918788 0.04861976 0.029495778 0.11044378 0.047679655 0.013904069 0.08727063 -0.11164285 -0.18370345 0.11713071 0.113382 -0.09837102 0.005402006 -0.08404619 -0.14208525 0.10961429 0.036581066 -0.126265 -0.16792345 -0.07980563 0.08555012 -0.011832721 -0.17642507 0.070956 -0.19506428 -0.03086012 -0.027160617 0.01288148 0.01770091 -0.11717861 -0.030779984 0.015551759 -0.053572558 -0.024757873 -0.011082427 -0.065415576 -0.04299473 -0.09028599 -0.1030342 0.070980035 -0.008732301 -0.09057179 0.025040587 -0.05817923 0.04486572 0.11404145
实施 0.12952714 -0.087691724 -0.08057816 0.08542849 0.23226632 -0.072513916 -0.09220968 0.019050956 0.05536514 -0.13521707 -0.1346303 -0.08818517 0.0041206926 0.14612754 -0.1749202 0.19420981 0.061494973 0.14680085 -0.0788042 0.14278917 -0.054869168 0.17412397 0.03335629 0.020421198 0.15220147 0.124370575 0.23978108 0.09474069 -0.04051587 -0.041629266 -0.031786006 0.023359872 -0.06439505 -0.0060668644 0.04743056 -0.09762132 -0.10533555 -0.0633473 -0.038251337 0.03589469 -0.14081202 -0.0030007928 0.17334343 -0.08190372 0.10159831 0.07275943 0.17045069 -0.082760364 0.21102999 0.058057707 -0.032022282 0.012413545 0.1343747 0.18495207 -0.123182766 0.038274862 -0.017657684 0.058591954 0.03837439 -0.019735409 0.07684609 -0.102195725 -0.15773055 0.12774782 0.07057972 -0.09890815 -0.049947556 -0.06990757 -0.13035946 0.10723681 0.036560617 -0.093397945 -0.14202432 -0.084629536 0.09045219 0.005236886 -0.16391064 0.09752854 -0.18535829 -0.05654457 0.045036618 0.0046947286 -0.006712278 -0.10422998 -0.037269313 0.051571615 -0.011638796 -0.006779068 -0.03448675 -0.12895554 -0.07280773 -0.0793181 -0.020122379 0.045228545 -0.0064996458 -0.03408671 0.01708204 -0.07379133 0.05010351 0.090310104
总部 0.062958315 -0.13164502 -0.07258256 -0.002327612 0.15518117 -0.048018888 -0.108746976 -0.0029134166 0.108085506 -0.052410796 -0.07177419 -0.0008303419 0.00227475 0.07671561 -0.26066253 0.25304797 0.020858372 0.1380372 0.008885025 0.079884894 -0.035115577 0.11975624 -0.033645913 0.02687802 0.13039379 0.12966816 0.22115456 0.031175233 0.04017411 -0.0031935975 -0.10242707 0.014134526 -0.0389664 -0.019816715 0.050995477 -0.15012129 -0.040498644 -0.020826133 -0.026789611 -0.08315166 -0.14374688 0.014142014 0.059012342 -0.06201296 0.05987874 0.017342335 0.20109104 -0.14944592 0.18420286 0.0072522834 -0.06595478 -0.04879277 0.20780359 0.17364448 -0.1641589 0.07856059 0.041611556 0.17899741 0.119974025 0.008739175 0.04915913 -0.0681834 -0.15432705 0.13526472 0.12972505 -0.071644165 0.0025903527 -0.08310027 -0.15525666 0.053829145 0.027186433 -0.15183505 -0.15782912 -0.094832 0.07797216 -0.036805134 -0.16539527 0.01983142 -0.15483393 -0.017894644 -0.036834836 0.023419237 0.03175932 -0.124731325 0.026696019 -0.03996876 -0.06787233 0.0067576035 -0.012202678 0.02305624 -0.0103166085 -0.075788 -0.15606177 0.061091106 -0.0060102204 -0.10371777 0.0025761393 -0.06708878 0.024395343 0.11479832
/ 0.099304885 -0.0769019 -0.0719657 0.02504689 0.19959489 -0.08287844 -0.13481759 0.025666231 0.08585691 -0.07717819 -0.091814466 -0.026626607 0.030169046 0.11186248 -0.21297851 0.22695774 0.015942764 0.13009113 -0.012385649 0.08012016 -0.048964407 0.13749793 0.0071468228 0.0024490582 0.15548679 0.13583438 0.22775184 0.0776175 0.0056413524 -0.041416354 -0.069970936 0.039045297 -0.05213462 0.036324643 0.035862878 -0.1083549 -0.047321927 -0.025056597 -0.041606136 -0.026140276 -0.15762989 -0.03236321 0.119767085 -0.08102394 0.06988588 0.022956165 0.16311638 -0.11969207 0.19868824 0.017927723 -0.023117192 -0.046339836 0.1689625 0.163559 -0.16112795 0.055854324 0.0407499 0.11500899 0.040216394 0.022380112 0.08100615 -0.12075624 -0.17992023 0.11512299 0.11797189 -0.109986454 0.013065554 -0.084301844 -0.14268063 0.12912789 0.036496498 -0.1253237 -0.16637394 -0.078510135 0.07011616 -0.01593217 -0.19187397 0.061342146 -0.20079944 -0.028606288 -0.032170545 0.017675918 0.024862029 -0.1373546 -0.02414574 0.023008669 -0.05021214 -0.041138906 -0.0060117566 -0.05852566 -0.04918451 -0.08978312 -0.12320705 0.074905805 -0.0053919298 -0.113519594 0.046645198 -0.05240486 0.03850831 0.109003544
年度 0.11800289 -0.0898982 -0.080812655 0.06082134 0.21155708 -0.06944473 -0.10922435 0.009640041 0.060076263 -0.10475019 -0.11754108 -0.056185655 0.007500146 0.12909175 -0.20440896 0.22048499 0.045299463 0.1514561 -0.05333041 0.12906168 -0.04358214 0.16242741 0.008846414 0.01849893 0.14694563 0.13941881 0.24940392 0.076853305 -0.011927173 -0.037878845 -0.059085663 0.026307583 -0.07181272 0.0141348485 0.057771515 -0.09199703 -0.08295626 -0.04300161 -0.035968807 -0.0045110253 -0.13763236 0.0028142994 0.12863187 -0.06681105 0.0919969 0.07033339 0.18539464 -0.117500365 0.21385615 0.03238977 -0.04746602 -0.009015229 0.166179 0.17509906 -0.14794692 0.049848586 0.005086914 0.098397695 0.03812908 0.009229171 0.086770974 -0.09905515 -0.17328468 0.12902485 0.10062261 -0.09379914 -0.014908685 -0.0786824 -0.1403324 0.090219915 0.038501345 -0.11846906 -0.15869628 -0.09130034 0.098774105 -0.0005527688 -0.16783969 0.08750473 -0.17721885 -0.036345597 0.0026926093 0.006948086 0.008715478 -0.11319649 -0.03047078 0.02861737 -0.039064627 -0.020081192 -0.026621101 -0.08820782 -0.049080968 -0.083928935 -0.062074084 0.054574583 -0.01852192 -0.05738626 0.011327428 -0.06925615 0.048113022 0.10404675
对象 0.1210413 -0.02527553 -0.13012321 -0.00094867597 0.16823763 -0.09107629 -0.17476785 0.011231563 0.05665483 -0.060592342 -0.05101119 0.01581149 0.03365548 0.086139366 -0.16104497 0.1917041 -0.012256528 0.12691128 0.03305883 0.042237744 -0.034583952 0.13899846 -0.010733995 -0.004668769 0.13008243 0.13284732 0.19234443 0.04662796 0.037221257 -0.037346337 -0.07368224 0.054546464 -0.12162031 0.0598886 0.03611165 -0.02985389 -0.026024593 -0.00531006 -0.035058435 -0.055022575 -0.1407201 -0.06786604 0.043381296 -0.096931055 0.052949294 -0.0076906267 0.15837431 -0.16634643 0.19999485 0.005304497 -0.03988881 -0.016423669 0.15380667 0.1209366 -0.17761537 -0.011440848 0.07140102 0.09295518 0.04056737 0.02472754 0.10401251 -0.14052022 -0.23255152 0.088924915 0.16361125 -0.09089655 0.04635371 -0.07970755 -0.117935106 0.15974681 0.044843353 -0.13073444 -0.19381742 -0.054496884 0.0703174 -0.032249957 -0.1701543 0.0601395 -0.2131187 0.0069387513 -0.0940286 0.03854008 0.024884231 -0.10864094 -0.013883907 0.029839702 -0.081176 -0.03671382 -0.0037456143 -0.059360724 -0.062007293 -0.07327625 -0.19948933 0.09604921 -0.00947949 -0.111584686 0.04949328 -0.05562127 0.06371481 0.123632215
培养 0.118242554 -0.09864981 -0.040276736 0.10722936 0.24220096 -0.06584381 -0.08234684 0.010551632 0.05233587 -0.12813652 -0.15198633 -0.107861765 -0.014199899 0.15746447 -0.18677014 0.20882837 0.06963059 0.14396879 -0.08370598 0.16470113 -0.054690257 0.17793329 0.02973574 0.017966256 0.15539151 0.111107945 0.2517454 0.10563317 -0.05364767 -0.054446366 -0.029788516 0.015618845 -0.054684743 -0.013462033 0.055450454 -0.092655025 -0.10861026 -0.07260245 -0.02006764 0.03978902 -0.12512048 0.018834703 0.1971036 -0.06314628 0.1062284 0.10644375 0.17467499 -0.061724585 0.19942664 0.04099663 -0.0359944 -0.003994568 0.12408145 0.1823978 -0.1216354 0.07029135 -0.040043034 0.063317925 0.001395017 0.00092720217 0.07830376 -0.07111349 -0.12854347 0.12718473 0.0518779 -0.097513385 -0.054541428 -0.06684904 -0.13712272 0.06229755 0.02313912 -0.08562019 -0.12705377 -0.09383049 0.098240726 0.027670827 -0.1405979 0.092002235 -0.15998638 -0.069569126 0.052474104 -0.019676657 0.00064633426 -0.114703655 -0.058579452 0.031102126 0.0012749125 -0.015596453 -0.018597305 -0.13890126 -0.062737875 -0.09741887 0.034958404 0.044538572 -0.014894445 -0.020182518 -0.0073135165 -0.058593918 0.030217333 0.074343435
网络 0.12335121 -0.08956055 -0.0625371 0.10156592 0.25178045 -0.055152275 -0.082383 0.02375583 0.05169707 -0.17321445 -0.13304117 -0.13552888 -0.001295837 0.15495609 -0.13064599 0.16256219 0.047942847 0.11947687 -0.07070766 0.12700063 -0.075839564 0.16958193 0.0754627 -0.008989887 0.17162138 0.087607555 0.17666008 0.124897785 -0.063792706 -0.053778693 0.008095167 0.0151136145 -0.03435964 -0.054322306 0.02081307 -0.104339465 -0.11614655 -0.0894319 -0.04047621 0.10641844 -0.15546037 -0.04935739 0.24553354 -0.10060463 0.11529372 0.05324074 0.17560509 -0.0032570653 0.18697627 0.08276534 -0.002521635 0.040924817 0.06942361 0.173849 -0.10797734 0.04266019 -0.039739266 0.012119159 0.060719863 -0.0759087 0.025951076 -0.09575657 -0.1127585 0.11022034 0.04251866 -0.09771532 -0.079688646 -0.05421499 -0.13509001 0.14905913 0.04493506 -0.05279139 -0.090332486 -0.06722609 0.042478558 -0.0077282866 -0.17039928 0.0631641 -0.198936 -0.0847558 0.11272587 0.004044146 -0.032715417 -0.11034424 -0.03990335 0.06936144 0.040135797 0.014564183 -0.035729103 -0.16515699 -0.111707784 -0.061024603 0.00970165 0.026241122 0.020156564 -0.0047586625 0.044086147 -0.08080722 0.034800988 0.03792807
